tree
version=v4
num_class=1
num_tree_per_iteration=1
label_index=0
max_feature_idx=6
objective=regression
feature_names=Column_0 Column_1 Column_2 Column_3 Column_4 Column_5 Column_6
feature_infos=[500:677400] [-0.7188720293625529:0.81451622451740013] [-1.3977081853680211:1.4199494081013109] [-0.71863392602123:0.81545236494450957] [-0.94496332498000801:0.96744343113307396] [-0.57224999342454475:0.53722394031046683] [-0.29725118736356188:0.29806864204514838]
tree_sizes=629 637 629 624 632 635 628 624 637 595 615 617 605 597 642 642 616 630 626 615 631 597 633 629 631 627 634 615 610 640 635 624 640 636 630 618 638 627 626 629 625 637 639 600 641 629 637 632 625 628 622 612 627 632 640 618 608 622 634 627 630 632 633 631 583 628 637 638 611 614 632 633 607 643 601 624 588 639 630 597 618 627 632 641 617 621 637 612 616 622 629 637 587 637 608 610 631 628 626 633 586 639 609 633 647 636 616 618 625 607 642 639 641 625 623 598 629 628 588 643 617 631 622 626 601 600 640 629 622 641 618 624 622 637 596 618 639 589 629 616 610 644 641 622 612 629 632 631 649 635 609 612 633 635 646 630 630 589 599 641 610 633 618 624 597 591 630 620 605 619 605 618 591 642 640 624 627 613 639 625 578 631 609 629 630 576 608 599 621 629 606 590 586 647 604 590 607 636 593 634 588 628 622 575 609 622 593 587 645 596 628 642 630 642 633 607 599 605 579 604 629 607 619 646 612 595 631 637 632 633 642 607 602 644 595 594 633 601 641 596 633 608 624 622 623 583 635 623 620 630 603 608 613 603 620 638 600 612 613 597 590 586 601 649 597 592 604 593 618 580 565 580 636 631 606 584 622 621 637 633 611 628 625 602 615 648 627 600 635 592 610 625 624 587 635 614 593 614 636 632 589 553 615 650 627 602 567 626 627 615 648 634 647 569 583 585 602 590 627 634 623 602 577 626 633 594 614 592 623 596 593 625 592 600 601 601 617 577 626 618 610 585 611 578 638 586 640 636 590 619 624 594 641 608 608 612 637 629 598 587 595 590 623 630 644 581 612 638 589 589 581 588 629 596 613 614 613 610 588 601 639 625 578 574 639 590 623 622 616 617 606 591 636 598 581 578 625 604 636 608 622 628 587 633 609 607 606 597 576 615 631 591 642 636 606 626 581 619 638 618 601 601 615 626 579 637 592 606 600 600 586 594 610 616 641 615 580 626 596 610 633 579 598 601 582 607 625 588 611 630 621 614 557 575 624 600 596 616 578 605 608 621 570 559 617 620 581 554 599 607 612 609 570 611 577 626 587 627 591 620 620 622 598 593 599 581 631 612 612 636 616 625 592 588 635 588 640 616 579 611 576 607 591 621 629 555 617 626 617 602 584 608 613 619 564 596 569 584 577 598 641 594 569 629 607 626 599 565 585 582 586 590 605 617 579 613 585 618 620 572 606 604 612 639 601 610 637 565 587 611 633 592 640 615 599 612 602 611 590 620 598 629 591 581 620 607 615 588 596 583 602 592 632 625 592 594 610 604 639 628 555 597 584 608 608 589 589 611 581 576 612 591 633 629 624 626 592 592 557 607 589 608 622 586 568 612 570 566 569 640 612 617 617 630 582 552 617 617 584 623 639 609 634 594 612 611 635 591 606 626 546 607 603 580 626 591 626 609 584 614 606 564 565 578 585 578 634 636 567 622 600 598 593 649 624 629 595 589 611 590 592 590 620 639 610 610 610 604 564 556 588 610 599 582 610 579 608 567 628 586 608 586 568 618 592 612 588 591 610 594 575 606 615 618 588 597 614 613 634 579 603 583 628 652 587 590 611 619 542 612 614 629 580 608 585 600 565 598 642 604 618 560 580 610 631 623 616 609 606 613 638 623 580 615 641 614 616 606 607 610 594 642 564 589 594 592 589 591 580 568 614 591 587 610 599 589 617 558 641 599 604 613 625 638 597 585 591 583 627 564 588 584 615 571 603 577 599 593 614 582 566 598 589 590 583 635 610 576 570 606 600 625 576 608 607 607 620 603 552 605 601 570 564 614 580 605 612 612 616 623 589 616 608 598 598 607 582 597 621 611 608 629 547 574 642 614 559 592 606 626 611 601 612 595 570 570 597 568 594 584 569 580 558 626 604 614 633 584 629 610 612 605 555 619 603 613 586 599 590 564 584 564 607 584 571 600 601 579 574 561 607 585 595 587 609 599 617 590 630 591 608 574 591 590 585 619 601 589 570 559 652 570 592 606 568 603 587 580 602 610 601 599 599 611 594 556 623 631 594 563 581 585 586 577 602 574 613 601 595 590 594 591 584 601 617 615 596 592 584 606 611 587 589 576 597 556 612 607 618 635 626 566 590 618 636 574 608 635 618 599 573 584 601 592 610 578 570 560 575 617 583 560 628 632 586 588 606 570 605 580 627 570 649 620 619 630 596 595 628 586 571 579 592 572 617 586 598 572 602 603 598 595 640 578 598 608 616 577 640 590

Tree=0
num_leaves=5
num_cat=0
split_feature=3 5 1 6
split_gain=0.0907787 0.0855872 0.0365785 0.0361495
threshold=0.091477035860295763 0.17525534462314793 -0.12583607036907446 0.041433632904842609
decision_type=2 2 2 2
left_child=1 2 -1 -4
right_child=-2 -3 3 -5
leaf_value=0.00054392078512082668 0.00041172076262391836 0.00050658921832675576 0.00045318969723808769 0.0004690294735524512
leaf_weight=500 3885 3951 48702 20200
leaf_count=500 3885 3951 48702 20200
internal_value=0.000458792 0.00046132 0.000458792 0.000458124
internal_weight=77238 73353 69402 68902
internal_count=77238 73353 69402 68902
is_linear=0
shrinkage=1


Tree=1
num_leaves=5
num_cat=0
split_feature=3 5 0 5
split_gain=0.0911711 0.0894955 0.0688131 0.0172041
threshold=0.091477035860295763 0.18670293821291939 18701.000000000004 -0.024712138977355195
decision_type=2 2 2 2
left_child=1 2 -1 -4
right_child=-2 -3 3 -5
leaf_value=-7.2088226809676034e-06 -4.6595422619135437e-05 5.2739080719804861e-05 1.2898283518297023e-07 1.9536211594650683e-05
leaf_weight=44145 3931 3426 9279 16527
leaf_count=44145 3931 3426 9279 16527
internal_value=4.35283e-08 2.81496e-06 8.35515e-08 1.33331e-05
internal_weight=77308 73377 69951 25806
internal_count=77308 73377 69951 25806
is_linear=0
shrinkage=0.01


Tree=2
num_leaves=5
num_cat=0
split_feature=3 0 5 5
split_gain=0.0872629 0.0845474 0.040308 0.0227953
threshold=0.091477035860295763 18701.000000000004 0.17525534462314793 -0.0041790303573650987
decision_type=2 2 2 2
left_child=1 3 -3 -1
right_child=-2 2 -4 -5
leaf_value=-1.260646063044772e-05 -4.5978208065264737e-05 1.2488685435376336e-05 6.6346049856363956e-05 7.1154378863319208e-07
leaf_weight=22859 3914 25577 1722 23464
leaf_count=22859 3914 25577 1722 23464
internal_value=0 2.47518e-06 1.66197e-05 -5.42881e-06
internal_weight=77536 73622 27299 46323
internal_count=77536 73622 27299 46323
is_linear=0
shrinkage=0.01


Tree=3
num_leaves=5
num_cat=0
split_feature=3 5 0 0
split_gain=0.0911457 0.0850804 0.0599717 0.0181423
threshold=0.091477035860295763 0.18670293821291939 18501.000000000004 89550.000000000015
decision_type=2 2 2 2
left_child=1 2 -1 -4
right_child=-2 -3 3 -5
leaf_value=-6.7786649767689712e-06 -4.6703581623274719e-05 5.1702951536615032e-05 9.6947975358811311e-06 5.8007519528446809e-05
leaf_weight=43836 3927 3387 25076 1022
leaf_count=43836 3927 3387 25076 1022
internal_value=0 2.73337e-06 7.53753e-08 1.23541e-05
internal_weight=77248 73321 69934 26098
internal_count=77248 73321 69934 26098
is_linear=0
shrinkage=0.01


Tree=4
num_leaves=5
num_cat=0
split_feature=5 1 0 0
split_gain=0.0806492 0.0698546 0.0554511 0.0190686
threshold=0.18670293821291939 0.07376324406224502 17170.000000000004 89550.000000000015
decision_type=2 2 2 2
left_child=1 2 -1 -4
right_child=-2 -3 3 -5
leaf_value=-6.6511649948148709e-06 4.6566311223577564e-05 -3.5645376920610515e-05 9.2386922832960289e-06 5.9921978049268247e-05
leaf_weight=40010 3587 5705 26798 951
leaf_count=40010 3587 5705 26798 951
internal_value=2.80898e-08 -1.97228e-06 5.67927e-07 1.16975e-05
internal_weight=77051 73464 67759 27749
internal_count=77051 73464 67759 27749
is_linear=0
shrinkage=0.01


Tree=5
num_leaves=5
num_cat=0
split_feature=3 0 2 6
split_gain=0.081121 0.0745944 0.0183836 0.0187773
threshold=0.095897269316672765 18701.000000000004 0.23917651395112663 0.055556066122410756
decision_type=2 2 2 2
left_child=1 2 3 -1
right_child=-2 -3 -4 -5
leaf_value=-1.19047023768497e-05 -4.5464258158138079e-05 1.5984657592573339e-05 7.6964809199307188e-06 3.2069258782070252e-06
leaf_weight=29394 3670 27235 8210 8838
leaf_count=29394 3670 27235 8210 8838
internal_value=1.30284e-07 2.67319e-06 -4.70251e-06 -7.88827e-06
internal_weight=77347 73677 46442 38232
internal_count=77347 73677 46442 38232
is_linear=0
shrinkage=0.01


Tree=6
num_leaves=5
num_cat=0
split_feature=3 0 6 2
split_gain=0.0817784 0.0770205 0.019211 0.0156903
threshold=0.095897269316672765 18501.000000000004 0.054549496984905056 0.23917651395112663
decision_type=2 2 2 2
left_child=1 2 3 -1
right_child=-2 -3 -4 -5
leaf_value=-1.2370882747028752e-05 -4.6552941612860611e-05 1.5705839861159385e-05 5.1088481101012123e-06 3.1490034248458293e-06
leaf_weight=29000 3594 27550 10987 5964
leaf_count=29000 3594 27550 10987 5964
internal_value=0 2.29734e-06 -5.3066e-06 -9.15156e-06
internal_weight=77095 73501 45951 34964
internal_count=77095 73501 45951 34964
is_linear=0
shrinkage=0.01


Tree=7
num_leaves=5
num_cat=0
split_feature=3 1 5 0
split_gain=0.0803401 0.0769412 0.0775034 0.0489716
threshold=0.095897269316672765 -0.16976384333993325 0.18670293821291939 18501.000000000004
decision_type=2 2 2 2
left_child=1 -1 3 -3
right_child=-2 2 -4 -5
leaf_value=0.00016181232754921285 -4.622098933236183e-05 -7.3251027040948381e-06 4.8111943294767744e-05 9.9652724573928035e-06
leaf_weight=303 3578 43871 3395 25881
leaf_count=303 3578 43871 3395 25881
internal_value=0 2.30124e-06 1.36597e-06 -6.22874e-07
internal_weight=77028 73450 73147 69752
internal_count=77028 73450 73147 69752
is_linear=0
shrinkage=0.01


Tree=8
num_leaves=5
num_cat=0
split_feature=3 5 0 6
split_gain=0.0753347 0.0757053 0.05526 0.0188157
threshold=0.091477035860295763 0.19259297452308907 18701.000000000004 0.057557823643941207
decision_type=2 2 2 2
left_child=1 2 3 -1
right_child=-2 -3 -4 -5
leaf_value=-1.0031075603102454e-05 -4.2174757129758133e-05 5.0705219789123862e-05 1.2109020024904549e-05 4.4278323806136977e-06
leaf_weight=34161 3949 3141 25753 10027
leaf_count=34161 3949 3141 25753 10027
internal_value=8.17119e-08 2.63898e-06 1.94064e-07 -6.29749e-06
internal_weight=77031 73082 69941 44188
internal_count=77031 73082 69941 44188
is_linear=0
shrinkage=0.01


Tree=9
num_leaves=5
num_cat=0
split_feature=3 5 0 5
split_gain=0.0729823 0.0755762 0.0550428 0.0169386
threshold=0.091477035860295763 0.19259297452308907 18501.000000000004 -0.024712138977355195
decision_type=2 2 2 2
left_child=1 2 -1 -4
right_child=-2 -3 3 -5
leaf_value=-6.849664037320351e-06 -4.2059026674592926e-05 4.9903074804913105e-05 0 1.7533145602205023e-05
leaf_weight=44009 3937 3168 9383 16698
leaf_count=44009 3937 3168 9383 16698
internal_value=0 2.13186e-06 0 1.14836e-05
internal_weight=77195 73258 70090 26081
internal_count=77195 73258 70090 26081
is_linear=0
shrinkage=0.01


Tree=10
num_leaves=5
num_cat=0
split_feature=5 1 0 6
split_gain=0.0729129 0.0612762 0.0501221 0.0200493
threshold=0.18670293821291939 0.09581677029632911 18701.000000000004 0.057557823643941207
decision_type=2 2 2 2
left_child=1 2 3 -1
right_child=-2 -3 -4 -5
leaf_value=-1.0422692852054181e-05 4.4004262561045646e-05 -4.347426416090597e-05 1.09216752837077e-05 4.5882471450413663e-06
leaf_weight=34397 3583 3428 25755 9892
leaf_count=34397 3583 3428 25755 9892
internal_value=0 -2.18971e-06 0 -6.61839e-06
internal_weight=77055 73472 70044 44289
internal_count=77055 73472 70044 44289
is_linear=0
shrinkage=0.01


Tree=11
num_leaves=5
num_cat=0
split_feature=3 5 1 6
split_gain=0.0739742 0.0742948 0.0446181 0.0322532
threshold=0.095897269316672765 0.17525534462314793 -0.12583607036907446 0.036992714021712059
decision_type=2 2 2 2
left_child=1 2 -1 -4
right_child=-2 -3 3 -5
leaf_value=9.3272509670694792e-05 -4.4115227048306229e-05 4.3840886618716982e-05 -5.705724056291145e-06 8.9544563958023925e-06
leaf_weight=507 3601 4067 47329 21590
leaf_count=507 3601 4067 47329 21590
internal_value=0 2.29872e-06 0 -8.22958e-07
internal_weight=77094 73493 69426 68919
internal_count=77094 73493 69426 68919
is_linear=0
shrinkage=0.01


Tree=12
num_leaves=5
num_cat=0
split_feature=3 5 0 5
split_gain=0.073411 0.0661519 0.0470893 0.0168347
threshold=0.091477035860295763 0.19259297452308907 18501.000000000004 -0.024712138977355195
decision_type=2 2 2 2
left_child=1 2 -1 -4
right_child=-2 -3 3 -5
leaf_value=-6.0052241744153862e-06 -4.2186904165433488e-05 4.7531265834075208e-05 0 1.694071776103904e-05
leaf_weight=44060 3908 3098 9339 16737
leaf_count=44060 3908 3098 9339 16737
internal_value=0 2.29286e-06 9.13677e-09 1.09384e-05
internal_weight=77142 73234 70136 26076
internal_count=77142 73234 70136 26076
is_linear=0
shrinkage=0.01


Tree=13
num_leaves=5
num_cat=0
split_feature=5 1 0 5
split_gain=0.0764839 0.0664262 0.0443687 0.0164738
threshold=0.17525534462314793 0.07376324406224502 17001.000000000004 -0.031865071334845348
decision_type=2 2 2 2
left_child=1 2 -1 -4
right_child=-2 -3 3 -5
leaf_value=-6.6559581844778454e-06 4.1038649711732998e-05 -3.5523167218468746e-05 0 1.5331686877805416e-05
leaf_weight=39376 4249 5653 9359 18462
leaf_count=39376 4249 5653 9359 18462
internal_value=0 -2.59747e-06 0 9.83743e-06
internal_weight=77099 72850 67197 27821
internal_count=77099 72850 67197 27821
is_linear=0
shrinkage=0.01


Tree=14
num_leaves=5
num_cat=0
split_feature=1 0 5 5
split_gain=0.0708094 0.0720447 0.0347398 0.0200149
threshold=0.091379201842950467 18501.000000000004 0.18092339647478728 -0.0041790303573650987
decision_type=2 2 2 2
left_child=1 3 -3 -1
right_child=-2 2 -4 -5
leaf_value=-1.2163506459483433e-05 -4.2185145272019752e-05 1.1120885537256693e-05 6.3186171533773691e-05 2.4683711315044042e-07
leaf_weight=22929 3841 25821 1587 23114
leaf_count=22929 3841 25821 1587 23114
internal_value=-1.00732e-07 1.82799e-06 1.48664e-05 -5.4991e-06
internal_weight=77292 73451 27408 46043
internal_count=77292 73451 27408 46043
is_linear=0
shrinkage=0.01


Tree=15
num_leaves=5
num_cat=0
split_feature=3 0 5 5
split_gain=0.0702208 0.0645035 0.0298302 0.0200957
threshold=0.095897269316672765 18701.000000000004 0.16116015033422001 -0.013183745040743848
decision_type=2 2 2 2
left_child=1 3 -3 -1
right_child=-2 2 -4 -5
leaf_value=-1.2325095879319129e-05 -4.3391029308410555e-05 1.0176437647965579e-05 5.3588830221173834e-05 1.5711053136314367e-07
leaf_weight=21268 3613 25246 2025 25160
leaf_count=21268 3613 25246 2025 25160
internal_value=-1.23049e-07 1.72702e-06 1.41343e-05 -5.13011e-06
internal_weight=77312 73699 27271 46428
internal_count=77312 73699 27271 46428
is_linear=0
shrinkage=0.01


Tree=16
num_leaves=5
num_cat=0
split_feature=1 5 1 0
split_gain=0.0761059 0.0672444 0.059018 0.0442407
threshold=-0.16976384333993325 0.18670293821291939 0.063775192503451358 17001.000000000004
decision_type=2 2 2 2
left_child=-1 2 3 -2
right_child=1 -3 -4 -5
leaf_value=0.00015557318078272307 -6.6114694415090869e-06 4.1296314590162228e-05 -2.8492469616564102e-05 1.0055868537383518e-05
leaf_weight=313 38554 3602 8013 27084
leaf_count=313 38554 3602 8013 27084
internal_value=0 -5.44935e-07 -2.86305e-06 0
internal_weight=77566 77253 73651 65638
internal_count=77566 77253 73651 65638
is_linear=0
shrinkage=0.01


Tree=17
num_leaves=5
num_cat=0
split_feature=3 0 5 5
split_gain=0.0687012 0.0721586 0.0265317 0.0259661
threshold=0.091477035860295763 22801.000000000004 -0.0032427496888199495 0.17525534462314793
decision_type=2 2 2 2
left_child=1 2 -1 -3
right_child=-2 3 -4 -5
leaf_value=-1.0909719281227783e-05 -4.0617728533985249e-05 1.4124789897260967e-05 2.787513835863348e-06 6.6157950818631413e-05
leaf_weight=26225 3947 18820 27155 1310
leaf_count=26225 3947 18820 27155 1310
internal_value=0 2.20539e-06 -3.56715e-06 1.8506e-05
internal_weight=77457 73510 53380 20130
internal_count=77457 73510 53380 20130
is_linear=0
shrinkage=0.01


Tree=18
num_leaves=5
num_cat=0
split_feature=3 0 0 6
split_gain=0.0624032 0.0570594 0.018478 0.0177403
threshold=0.095897269316672765 18501.000000000004 89550.000000000015 0.054549496984905056
decision_type=2 2 2 2
left_child=1 3 -3 -1
right_child=-2 2 -4 -5
leaf_value=-8.4408645165367177e-06 -4.0897738730404151e-05 1.0766071444182225e-05 5.9732492305532695e-05 5.260600292697512e-06
leaf_weight=35159 3595 26646 1024 11027
leaf_count=35159 3595 26646 1024 11027
internal_value=0 1.75081e-06 1.3302e-05 -4.73656e-06
internal_weight=77451 73856 27670 46186
internal_count=77451 73856 27670 46186
is_linear=0
shrinkage=0.01


Tree=19
num_leaves=5
num_cat=0
split_feature=3 5 0 3
split_gain=0.0678289 0.0636909 0.0446119 0.0182359
threshold=0.095897269316672765 0.18670293821291939 18701.000000000004 -0.11434119872814363
decision_type=2 2 2 2
left_child=1 2 -1 -4
right_child=-2 -3 3 -5
leaf_value=-5.7727374085399428e-06 -4.1626185394655259e-05 4.4297159513961779e-05 8.7361014404963909e-05 8.8574427865689936e-06
leaf_weight=44499 3680 3452 368 25358
leaf_count=44499 3680 3452 368 25358
internal_value=0 2.34612e-06 0 1.07595e-05
internal_weight=77357 73677 70225 25726
internal_count=77357 73677 70225 25726
is_linear=0
shrinkage=0.01


Tree=20
num_leaves=5
num_cat=0
split_feature=1 5 3 0
split_gain=0.06856 0.0685935 0.0517834 0.0349205
threshold=-0.16976384333993325 0.18670293821291939 0.14623113673625299 18701.000000000004
decision_type=2 2 2 2
left_child=-1 2 3 -2
right_child=1 -3 -4 -5
leaf_value=0.00014948774193940684 -7.476285799860498e-06 4.14583098476586e-05 -6.876867885024097e-05 6.7951426492266359e-06
leaf_weight=303 45530 3562 1208 26459
leaf_count=303 45530 3562 1208 26459
internal_value=-1.38136e-07 -9.90297e-07 -3.32948e-06 -1.9531e-06
internal_weight=77062 76759 73197 71989
internal_count=77062 76759 73197 71989
is_linear=0
shrinkage=0.01


Tree=21
num_leaves=5
num_cat=0
split_feature=3 5 0 5
split_gain=0.0641584 0.0648136 0.0437926 0.0148815
threshold=0.091477035860295763 0.18670293821291939 18501.000000000004 -0.024712138977355195
decision_type=2 2 2 2
left_child=1 2 -1 -4
right_child=-2 -3 3 -5
leaf_value=-6.1601180371194755e-06 -3.9403333857520766e-05 4.4288772918923139e-05 0 1.5886325800464061e-05
leaf_weight=44029 3942 3454 9372 16628
leaf_count=44029 3942 3454 9372 16628
internal_value=0 2.00235e-06 0 1.02064e-05
internal_weight=77425 73483 70029 26000
internal_count=77425 73483 70029 26000
is_linear=0
shrinkage=0.01


Tree=22
num_leaves=5
num_cat=0
split_feature=5 0 6 1
split_gain=0.0641709 0.0392201 0.0274361 0.0145846
threshold=-1.0000000180025095e-35 21425.000000000004 0.045132904067434858 0.037366150773292708
decision_type=2 2 2 2
left_child=2 -2 3 -1
right_child=1 -3 -4 -5
leaf_value=-9.095302569548023e-06 8.5363948710312452e-07 2.2828624463032749e-05 4.390108100348282e-06 -2.8838940753251633e-05
leaf_weight=22433 26430 13239 8712 6731
leaf_count=22433 26430 13239 8712 6731
internal_value=0 8.69186e-06 -9.50246e-06 -1.43383e-05
internal_weight=77545 39669 37876 29164
internal_count=77545 39669 37876 29164
is_linear=0
shrinkage=0.01


Tree=23
num_leaves=5
num_cat=0
split_feature=5 3 0 6
split_gain=0.0600939 0.0552855 0.0393613 0.0161143
threshold=0.17525534462314793 0.070770674969121414 17001.000000000004 0.064764218832715756
decision_type=2 2 2 2
left_child=1 2 3 -1
right_child=-2 -3 -4 -5
leaf_value=-9.1612647283546796e-06 3.7063112097719007e-05 -3.0462508990719321e-05 9.8006136732869279e-06 5.8002410436620078e-06
leaf_weight=31510 4168 6251 27668 7606
leaf_count=31510 4168 6251 27668 7606
internal_value=0 -1.96924e-06 3.98472e-07 -5.74071e-06
internal_weight=77203 73035 66784 39116
internal_count=77203 73035 66784 39116
is_linear=0
shrinkage=0.01


Tree=24
num_leaves=5
num_cat=0
split_feature=5 3 0 6
split_gain=0.0646156 0.0544519 0.0401644 0.0162458
threshold=0.18670293821291939 0.070770674969121414 18501.000000000004 -0.0023481654344001497
decision_type=2 2 2 2
left_child=1 2 -1 -4
right_child=-2 -3 3 -5
leaf_value=-5.201113292125889e-06 4.1409251907796241e-05 -3.0108992300530028e-05 5.7123828040596318e-07 1.8620903627510378e-05
leaf_weight=42514 3608 6296 12074 12972
leaf_count=42514 3608 6296 12074 12972
internal_value=0 -1.92599e-06 4.04591e-07 1.07183e-05
internal_weight=77464 73856 67560 25046
internal_count=77464 73856 67560 25046
is_linear=0
shrinkage=0.01


Tree=25
num_leaves=5
num_cat=0
split_feature=5 1 1 0
split_gain=0.0601468 0.0504879 0.0424365 0.0304427
threshold=0.17525534462314793 0.14621883511108238 -0.12583607036907446 17001.000000000004
decision_type=2 2 2 2
left_child=1 2 -1 -4
right_child=-2 -3 3 -5
leaf_value=9.2540308842589406e-05 3.6684714203741561e-05 -6.7805238793467902e-05 -7.4277911264854478e-06 5.6719104936537058e-06
leaf_weight=476 4217 1161 41763 29554
leaf_count=476 4217 1161 41763 29554
internal_value=0 -2.15532e-06 -8.14623e-07 -1.71879e-06
internal_weight=77171 72954 71793 71317
internal_count=77171 72954 71793 71317
is_linear=0
shrinkage=0.01


Tree=26
num_leaves=5
num_cat=0
split_feature=5 5 3 1
split_gain=0.0586752 0.0279736 0.0251761 0.024136
threshold=-1.0000000180025095e-35 0.19259297452308907 0.021705914605738053 0.069488898086780063
decision_type=2 2 2 2
left_child=2 3 -1 -2
right_child=1 -3 -4 -5
leaf_value=-2.5003798028881607e-06 7.8282571361220706e-06 3.752664457046591e-05 -2.1121204278641837e-05 -2.3158161289534613e-05
leaf_weight=25449 33782 3250 12270 2452
leaf_count=25449 33782 3250 12270 2452
internal_value=0 8.34867e-06 -9.08817e-06 5.17912e-06
internal_weight=77203 39484 37719 36234
internal_count=77203 39484 37719 36234
is_linear=0
shrinkage=0.01


Tree=27
num_leaves=5
num_cat=0
split_feature=1 5 1 0
split_gain=0.0573687 0.0586397 0.0524827 0.033896
threshold=-0.16976384333993325 0.17525534462314793 0.063775192503451358 17001.000000000004
decision_type=2 2 2 2
left_child=-1 2 3 -2
right_child=1 -3 -4 -5
leaf_value=0.0001365846584453802 -5.9044118023923236e-06 3.5703126670109813e-05 -2.7113302468997846e-05 8.7487295491526973e-06
leaf_weight=306 38326 4156 7934 26828
leaf_count=306 38326 4156 7934 26828
internal_value=0 -4.95965e-07 -2.82822e-06 0
internal_weight=77550 77244 73088 65154
internal_count=77550 77244 73088 65154
is_linear=0
shrinkage=0.01


Tree=28
num_leaves=5
num_cat=0
split_feature=5 0 6 5
split_gain=0.0606415 0.0367183 0.0248802 0.0160472
threshold=-0.0022299415432984492 18701.000000000004 0.045132904067434858 0.18670293821291939
decision_type=2 2 2 2
left_child=2 -2 -1 -3
right_child=1 3 -4 -5
leaf_value=-1.3821391266006435e-05 0 1.5168157204629501e-05 4.0975526848717479e-06 5.7409953138690084e-05
leaf_weight=28624 24042 14564 8532 1476
leaf_count=28624 24042 14564 8532 1476
internal_value=0 8.56547e-06 -9.16846e-06 2.03038e-05
internal_weight=77238 40082 37156 16040
internal_count=77238 40082 37156 16040
is_linear=0
shrinkage=0.01


Tree=29
num_leaves=5
num_cat=0
split_feature=3 0 5 5
split_gain=0.0594725 0.0544173 0.0234476 0.0194646
threshold=0.091477035860295763 22801.000000000004 -0.018663474738318846 0.15739699988145958
decision_type=2 2 2 2
left_child=1 2 -1 -3
right_child=-2 3 -4 -5
leaf_value=-1.1067398384796536e-05 -3.8036680776320068e-05 1.1509795818516656e-05 1.9621088239279489e-06 5.2322552959616977e-05
leaf_weight=22825 3958 18464 30180 1678
leaf_count=22825 3958 18464 30180 1678
internal_value=-4.6996e-08 1.73546e-06 -3.27139e-06 1.5904e-05
internal_weight=77105 73147 53005 20142
internal_count=77105 73147 53005 20142
is_linear=0
shrinkage=0.01


Tree=30
num_leaves=5
num_cat=0
split_feature=1 5 1 0
split_gain=0.0584499 0.0522979 0.0429098 0.03424
threshold=-0.16976384333993325 0.17525534462314793 0.066099528059149759 18501.000000000004
decision_type=2 2 2 2
left_child=-1 2 3 -2
right_child=1 -3 -4 -5
leaf_value=0.00013619486037451164 -6.1245254558326089e-06 3.2983531003390902e-05 -2.62150667648604e-05 8.8178643549079524e-06
leaf_weight=311 41284 4196 7301 24194
leaf_count=311 41284 4196 7301 24194
internal_value=-1.30338e-07 -9.41833e-07 -3.17278e-06 -2.97871e-07
internal_weight=77286 76975 72779 65478
internal_count=77286 76975 72779 65478
is_linear=0
shrinkage=0.01


Tree=31
num_leaves=5
num_cat=0
split_feature=1 5 3 0
split_gain=0.0595483 0.0597337 0.0467276 0.0321828
threshold=-0.16976384333993325 0.18670293821291939 0.14623113673625299 30109.500000000004
decision_type=2 2 2 2
left_child=-1 2 3 -2
right_child=1 -3 -4 -5
leaf_value=0.0001374527075741957 -4.5371076748105062e-06 3.9155692509739176e-05 -6.5184165175554676e-05 1.320100935604976e-05
leaf_weight=314 60241 3578 1188 12055
leaf_count=314 60241 3578 1188 12055
internal_value=0 -4.0915e-07 -2.60802e-06 -1.30266e-06
internal_weight=77376 77062 73484 72296
internal_count=77376 77062 73484 72296
is_linear=0
shrinkage=0.01


Tree=32
num_leaves=5
num_cat=0
split_feature=3 5 0 6
split_gain=0.0544586 0.0530823 0.0349978 0.0151704
threshold=0.091477035860295763 0.17525534462314793 22603.000000000004 0.057557823643941207
decision_type=2 2 2 2
left_child=1 2 3 -1
right_child=-2 -3 -4 -5
leaf_value=-7.919056822116182e-06 -3.6412519260400055e-05 3.7188076593455432e-05 1.115340215398239e-05 4.2751852061577134e-06
leaf_weight=38767 3950 3988 19096 11512
leaf_count=38767 3950 3988 19096 11512
internal_value=-4.08771e-09 1.68383e-06 -6.90881e-08 -4.72924e-06
internal_weight=77313 73363 69375 50279
internal_count=77313 73363 69375 50279
is_linear=0
shrinkage=0.01


Tree=33
num_leaves=5
num_cat=0
split_feature=1 5 1 6
split_gain=0.0652766 0.0557528 0.0485786 0.0334533
threshold=-0.16976384333993325 0.18670293821291939 0.064857706960591316 0.036992714021712059
decision_type=2 2 2 2
left_child=-1 2 3 -2
right_child=1 -3 -4 -5
leaf_value=0.00014222362904327509 -4.3856892147486224e-06 3.7824683747889188e-05 -2.620494544099095e-05 1.1009059643962882e-05
leaf_weight=322 45365 3606 7685 20406
leaf_count=322 45365 3606 7685 20406
internal_value=8.50445e-08 -2.50264e-07 -2.3919e-06 8.6624e-08
internal_weight=77384 77062 73456 65771
internal_count=77384 77062 73456 65771
is_linear=0
shrinkage=0.01


Tree=34
num_leaves=5
num_cat=0
split_feature=3 0 5 6
split_gain=0.0591877 0.055432 0.028666 0.0147081
threshold=0.095897269316672765 28025.000000000004 -0.015318968877620798 0.045132904067434858
decision_type=2 2 2 2
left_child=1 2 3 -1
right_child=-2 -3 -4 -5
leaf_value=-1.4707431842572913e-05 -3.9539043132643835e-05 1.965102445824385e-05 3.3606170845923502e-06 3.7325867820067006e-07
leaf_weight=19650 3650 14134 33895 5947
leaf_count=19650 3650 14134 33895 5947
internal_value=0 1.69611e-06 -2.23354e-06 -1.04224e-05
internal_weight=77276 73626 59492 25597
internal_count=77276 73626 59492 25597
is_linear=0
shrinkage=0.01


Tree=35
num_leaves=5
num_cat=0
split_feature=1 5 3 6
split_gain=0.0552007 0.0529912 0.0443687 0.0320087
threshold=-0.16976384333993325 0.17525534462314793 0.070770674969121414 0.036992714021712059
decision_type=2 2 2 2
left_child=-1 2 3 -2
right_child=1 -3 -4 -5
leaf_value=0.00013174127146838894 -4.4435305075048542e-06 3.4513268987743171e-05 -2.7578395356080596e-05 1.0497446093721012e-05
leaf_weight=318 46168 4152 6297 20774
leaf_count=318 46168 4152 6297 20774
internal_value=3.15651e-07 0 -2.19481e-06 0
internal_weight=77709 77391 73239 66942
internal_count=77709 77391 73239 66942
is_linear=0
shrinkage=0.01


Tree=36
num_leaves=5
num_cat=0
split_feature=1 5 5 3
split_gain=0.0679605 0.0537872 0.027812 0.0272374
threshold=-0.16976384333993325 0.010611539965571902 0.17525534462314793 0.037405311504183358
decision_type=2 2 2 2
left_child=-1 3 -3 -2
right_child=1 2 -4 -5
leaf_value=0.00014592012779740838 -3.6377493577260556e-06 3.9082673365180094e-06 3.2865493109670451e-05 -2.404402506525528e-05
leaf_weight=316 31852 31525 4163 9583
leaf_count=316 31852 31525 4163 9583
internal_value=-8.78656e-10 -8.59035e-07 7.84694e-06 -8.84018e-06
internal_weight=77439 77123 35688 41435
internal_count=77439 77123 35688 41435
is_linear=0
shrinkage=0.01


Tree=37
num_leaves=5
num_cat=0
split_feature=3 5 0 6
split_gain=0.0533461 0.0501097 0.0347149 0.0147548
threshold=0.091477035860295763 0.19259297452308907 17170.000000000004 0.057557823643941207
decision_type=2 2 2 2
left_child=1 2 3 -1
right_child=-2 -3 -4 -5
leaf_value=-8.8921684061848159e-06 -3.565032577823755e-05 4.1562262771278769e-05 8.8077404184626293e-06 4.2740780119224861e-06
leaf_weight=32075 3930 3096 28905 9279
leaf_count=32075 3930 3096 28905 9279
internal_value=0 2.15022e-06 1.28562e-07 -5.45429e-06
internal_weight=77285 73355 70259 41354
internal_count=77285 73355 70259 41354
is_linear=0
shrinkage=0.01


Tree=38
num_leaves=5
num_cat=0
split_feature=1 3 5 0
split_gain=0.0621949 0.0495174 0.049763 0.0340342
threshold=-0.16976384333993325 0.091477035860295763 0.19259297452308907 21802.000000000004
decision_type=2 2 2 2
left_child=-1 2 3 -2
right_child=1 -3 -4 -5
leaf_value=0.00013906560701148457 -5.1558644713452833e-06 -3.5447196293284003e-05 4.0289024958759011e-05 1.0106539027374928e-05
leaf_weight=320 49527 3892 3109 20538
leaf_count=320 49527 3892 3109 20538
internal_value=0 -5.25305e-07 1.05904e-06 -3.96542e-07
internal_weight=77386 77066 73174 70065
internal_count=77386 77066 73174 70065
is_linear=0
shrinkage=0.01


Tree=39
num_leaves=5
num_cat=0
split_feature=5 0 6 0
split_gain=0.0476506 0.0350784 0.026219 0.0114393
threshold=-0.015318968877620798 22009.500000000004 0.045132904067434858 48123.000000000007
decision_type=2 2 2 2
left_child=2 -2 3 -1
right_child=1 -3 -4 -5
leaf_value=-1.5959713363874622e-05 2.5152459114068386e-07 2.0217666475242741e-05 5.8497101023578076e-06 3.1877654610013415e-06
leaf_weight=23983 30082 13839 7424 1665
leaf_count=23983 30082 13839 7424 1665
internal_value=0 6.99814e-06 -8.89045e-06 -1.39369e-05
internal_weight=76993 43921 33072 25648
internal_count=76993 43921 33072 25648
is_linear=0
shrinkage=0.01


Tree=40
num_leaves=5
num_cat=0
split_feature=1 5 1 0
split_gain=0.0575689 0.0484668 0.041715 0.0277245
threshold=-0.16976384333993325 0.17525534462314793 0.14621883511108238 17001.000000000004
decision_type=2 2 2 2
left_child=-1 2 3 -2
right_child=1 -3 -4 -5
leaf_value=0.00013680706204414564 -7.0418480788959637e-06 3.2069603128788714e-05 -6.242058653536905e-05 5.4337023128980007e-06
leaf_weight=305 42023 4169 1176 29591
leaf_count=305 42023 4169 1176 29591
internal_value=0 -7.12782e-07 -2.86534e-06 -1.60766e-06
internal_weight=77264 76959 72790 71614
internal_count=77264 76959 72790 71614
is_linear=0
shrinkage=0.01


Tree=41
num_leaves=5
num_cat=0
split_feature=5 5 1 1
split_gain=0.0531731 0.028122 0.0234184 0.0197204
threshold=-0.017577561062708798 0.19259297452308907 0.069488898086780063 -0.12583607036907446
decision_type=2 2 2 2
left_child=-1 2 3 -2
right_child=1 -3 -4 -5
leaf_value=-9.3529026791891559e-06 8.0342642234801172e-05 3.6496042579948652e-05 -2.1705603934375345e-05 5.7400967258231544e-06
leaf_weight=32709 407 3296 2784 37914
leaf_count=32709 407 3296 2784 37914
internal_value=5.59419e-08 7.43764e-06 4.62063e-06 7.05537e-06
internal_weight=77110 44401 41105 38321
internal_count=77110 44401 41105 38321
is_linear=0
shrinkage=0.01


Tree=42
num_leaves=5
num_cat=0
split_feature=1 5 3 6
split_gain=0.052286 0.046717 0.0403522 0.0297977
threshold=-0.16976384333993325 0.17525534462314793 0.070770674969121414 0.036992714021712059
decision_type=2 2 2 2
left_child=-1 2 3 -2
right_child=1 -3 -4 -5
leaf_value=0.00012793870709224979 -5.3476433027054963e-06 3.0889153854641316e-05 -2.7517059861559778e-05 9.0485389394629888e-06
leaf_weight=314 45976 4213 6273 20618
leaf_count=314 45976 4213 6273 20618
internal_value=-2.78298e-07 -1.06091e-06 -3.18286e-06 -5.90118e-07
internal_weight=77394 77080 72867 66594
internal_count=77394 77080 72867 66594
is_linear=0
shrinkage=0.01


Tree=43
num_leaves=5
num_cat=0
split_feature=5 3 0 1
split_gain=0.0468725 0.0409007 0.0325283 0.0221092
threshold=0.18670293821291939 0.14623113673625299 18501.000000000004 0.20900999765225398
decision_type=2 2 2 2
left_child=1 2 -1 -3
right_child=-2 3 -4 -5
leaf_value=-6.0079186519762246e-06 3.528335683009601e-05 -0.00010842474628664566 7.8004314163226623e-06 0
leaf_weight=45353 3570 554 26959 624
leaf_count=45353 3570 554 26959 624
internal_value=0 -1.81568e-06 -5.83363e-07 -6.04589e-05
internal_weight=77060 73490 72312 1178
internal_count=77060 73490 72312 1178
is_linear=0
shrinkage=0.01


Tree=44
num_leaves=5
num_cat=0
split_feature=3 5 5 6
split_gain=0.0410457 0.0426258 0.0222428 0.0208211
threshold=0.091477035860295763 0.19259297452308907 -0.017577561062708798 0.045132904067434858
decision_type=2 2 2 2
left_child=1 2 3 -1
right_child=-2 -3 -4 -5
leaf_value=-1.0572228530254006e-05 -3.0774491676122438e-05 3.8210437470074348e-05 5.6219731175331949e-06 7.9849870372717571e-06
leaf_weight=23469 3920 3187 39698 6925
leaf_count=23469 3920 3187 39698 6925
internal_value=4.08078e-07 2.34929e-06 4.33128e-07 -5.68606e-06
internal_weight=77199 73279 70092 30394
internal_count=77199 73279 70092 30394
is_linear=0
shrinkage=0.01


Tree=45
num_leaves=5
num_cat=0
split_feature=1 5 5 6
split_gain=0.0505333 0.0473298 0.0271895 0.0264489
threshold=-0.16976384333993325 0.0020660774585372003 0.19259297452308907 0.045132904067434858
decision_type=2 2 2 2
left_child=-1 3 -3 -2
right_child=1 2 -4 -5
leaf_value=0.00012579784378561552 -1.3371620921227147e-05 3.7581255985286887e-06 3.5434968188487715e-05 4.9194083350706139e-06
leaf_weight=317 29815 35290 3250 8875
leaf_count=317 29815 35290 3250 8875
internal_value=0 -6.11311e-07 6.94873e-06 -8.65896e-06
internal_weight=77547 77230 38540 38690
internal_count=77547 77230 38540 38690
is_linear=0
shrinkage=0.01


Tree=46
num_leaves=5
num_cat=0
split_feature=1 5 6 5
split_gain=0.0530657 0.0473893 0.027079 0.023599
threshold=-0.16976384333993325 1.0000000180025095e-35 0.045132904067434858 0.17525534462314793
decision_type=2 2 2 2
left_child=-1 2 -2 -3
right_child=1 3 -4 -5
leaf_value=0.00012924001028387274 -1.3267728269668546e-05 3.8582743744463088e-06 5.5077364844596183e-06 3.0300871355353893e-05
leaf_weight=317 29212 34954 8684 4230
leaf_count=317 29212 34954 8684 4230
internal_value=5.59969e-08 -2.16653e-07 -8.4375e-06 7.22357e-06
internal_weight=77397 77080 37896 39184
internal_count=77397 77080 37896 39184
is_linear=0
shrinkage=0.01


Tree=47
num_leaves=5
num_cat=0
split_feature=0 1 2 6
split_gain=0.0449488 0.0322049 0.0190777 0.0175397
threshold=29202.500000000004 0.07376324406224502 0.17151148730620994 0.036992714021712059
decision_type=2 2 2 2
left_child=1 2 3 -1
right_child=-2 -3 -4 -5
leaf_value=-8.3060739696642287e-06 1.640087440051257e-05 -2.8530552285373257e-05 1.0773286438264256e-05 4.0840071323189869e-06
leaf_weight=32930 13925 4799 10353 15047
leaf_count=32930 13925 4799 10353 15047
internal_value=0 -3.44467e-06 -1.03767e-06 -4.00332e-06
internal_weight=77054 63129 58330 47977
internal_count=77054 63129 58330 47977
is_linear=0
shrinkage=0.01


Tree=48
num_leaves=5
num_cat=0
split_feature=5 3 0 0
split_gain=0.0453049 0.0384925 0.033014 0.0151924
threshold=0.18670293821291939 0.095897269316672765 22801.000000000004 89550.000000000015
decision_type=2 2 2 2
left_child=1 2 -1 -4
right_child=-2 -3 3 -5
leaf_value=-3.9134471880500183e-06 3.4806522578563781e-05 -3.4026891206180477e-05 8.0610650671720614e-06 5.3329752247163368e-05
leaf_weight=50892 3634 3435 18007 1009
leaf_count=50892 3634 3435 18007 1009
internal_value=1.22579e-07 -1.32348e-06 0 1.15161e-05
internal_weight=76977 73343 69908 19016
internal_count=76977 73343 69908 19016
is_linear=0
shrinkage=0.01


Tree=49
num_leaves=5
num_cat=0
split_feature=3 1 5 6
split_gain=0.0480439 0.0397758 0.0379051 0.0297931
threshold=0.091477035860295763 -0.16976384333993325 0.17525534462314793 0.036992714021712059
decision_type=2 2 2 2
left_child=1 -1 3 -3
right_child=-2 2 -4 -5
leaf_value=0.00011461421497867592 -3.3727696636618587e-05 -4.9279871406433398e-06 3.1171983602849231e-05 9.2078899230444188e-06
leaf_weight=316 3968 47496 4010 21575
leaf_count=316 3968 47496 4010 21575
internal_value=0 1.98772e-06 1.22627e-06 -2.22918e-07
internal_weight=77365 73397 73081 69071
internal_count=77365 73397 73081 69071
is_linear=0
shrinkage=0.01


Tree=50
num_leaves=5
num_cat=0
split_feature=3 0 5 0
split_gain=0.044519 0.0440795 0.0219581 0.0218464
threshold=0.14623113673625299 22801.000000000004 0.15739699988145958 89550.000000000015
decision_type=2 2 2 2
left_child=1 -1 3 -3
right_child=-2 2 -4 -5
leaf_value=-3.5653407796100884e-06 -5.9671256923597555e-05 5.2645660129361683e-06 5.0004353380870293e-05 5.6581961466274847e-05
leaf_weight=54957 1234 18246 1760 1011
leaf_count=54957 1234 18246 1760 1011
internal_value=0 8.60591e-07 1.33853e-05 8.9987e-06
internal_weight=77208 75974 21017 19257
internal_count=77208 75974 21017 19257
is_linear=0
shrinkage=0.01


Tree=51
num_leaves=5
num_cat=0
split_feature=0 5 3 5
split_gain=0.0474743 0.028712 0.0192699 0.0125146
threshold=18501.000000000004 0.018200870740175502 0.073803819104442364 -0.013183745040743848
decision_type=2 2 2 2
left_child=2 -2 3 -1
right_child=1 -3 -4 -5
leaf_value=-9.6609761344800199e-06 0 2.0613400378393898e-05 -2.8984661143115995e-05 2.505694444256286e-07
leaf_weight=20366 15470 13618 3699 24371
leaf_count=20366 15470 13618 3699 24371
internal_value=0 1.00114e-05 -6.14995e-06 -3.81455e-06
internal_weight=77524 29088 48436 44737
internal_count=77524 29088 48436 44737
is_linear=0
shrinkage=0.01


Tree=52
num_leaves=5
num_cat=0
split_feature=3 1 5 6
split_gain=0.0460741 0.0411364 0.0434248 0.024489
threshold=0.091477035860295763 -0.16976384333993325 0.19259297452308907 0.041433632904842609
decision_type=2 2 2 2
left_child=1 -1 3 -3
right_child=-2 2 -4 -5
leaf_value=0.00011694222185417311 -3.3258485338060715e-05 -4.3684750837766777e-06 3.8070911509219686e-05 8.5512439149225733e-06
leaf_weight=312 3949 49553 3046 20635
leaf_count=312 3949 49553 3046 20635
internal_value=0 1.80176e-06 1.03734e-06 -2.85147e-07
internal_weight=77495 73546 73234 70188
internal_count=77495 73546 73234 70188
is_linear=0
shrinkage=0.01


Tree=53
num_leaves=5
num_cat=0
split_feature=3 0 2 6
split_gain=0.0456339 0.0464019 0.0169632 0.0154158
threshold=0.091477035860295763 24202.500000000004 0.17151148730620994 0.043280167243507757
decision_type=2 2 2 2
left_child=1 2 3 -1
right_child=-2 -3 -4 -5
leaf_value=-9.0700800957263359e-06 -3.322526856071898e-05 1.5877057385043261e-05 8.7747507068511063e-06 2.9523915209375673e-06
leaf_weight=32118 3866 18439 10011 12827
leaf_count=32118 3866 18439 10011 12827
internal_value=0 2.00513e-06 -2.28539e-06 -5.19397e-06
internal_weight=77261 73395 54956 44945
internal_count=77261 73395 54956 44945
is_linear=0
shrinkage=0.01


Tree=54
num_leaves=5
num_cat=0
split_feature=3 5 6 5
split_gain=0.0449715 0.0405064 0.0184733 0.0174454
threshold=0.14623113673625299 -0.0022299415432984492 0.045132904067434858 0.19259297452308907
decision_type=2 2 2 2
left_child=1 2 -1 -3
right_child=-2 3 -4 -5
leaf_value=-9.7798537514901778e-06 -6.0061673187651233e-05 6.1969518034985779e-06 5.957327523576963e-06 3.2462749382569191e-05
leaf_weight=28035 1191 36241 8486 3306
leaf_count=28035 1191 36241 8486 3306
internal_value=4.75478e-07 1.68662e-06 -5.57552e-06 8.89879e-06
internal_weight=77259 76068 36521 39547
internal_count=77259 76068 36521 39547
is_linear=0
shrinkage=0.01


Tree=55
num_leaves=5
num_cat=0
split_feature=5 0 3 0
split_gain=0.0419046 0.0323181 0.0156418 0.013019
threshold=-0.015318968877620798 21802.000000000004 0.021705914605738053 34002.500000000007
decision_type=2 2 2 2
left_child=2 -2 -1 -4
right_child=1 -3 3 -5
leaf_value=-2.2119869251311254e-06 9.773287640190049e-08 1.9146786835592035e-05 -2.2951016345899018e-05 0
leaf_weight=22076 29841 14194 9447 1752
leaf_count=22076 29841 14194 9447 1752
internal_value=3.88049e-08 6.69223e-06 -8.16503e-06 -1.81135e-05
internal_weight=77310 44035 33275 11199
internal_count=77310 44035 33275 11199
is_linear=0
shrinkage=0.01


Tree=56
num_leaves=5
num_cat=0
split_feature=5 0 6 3
split_gain=0.0421839 0.0295762 0.0181564 0.00867633
threshold=-0.015318968877620798 22009.500000000004 0.045132904067434858 0.099843039759091215
decision_type=2 2 2 2
left_child=2 -2 -1 -3
right_child=1 3 -4 -5
leaf_value=-1.2500822168122847e-05 3.0485675507493137e-07 2.0620212091491277e-05 3.4049234555345823e-06 0
leaf_weight=25821 29956 13486 7503 470
leaf_count=25821 29956 13486 7503 470
internal_value=0 6.5984e-06 -8.31944e-06 1.86737e-05
internal_weight=77236 43912 33324 13956
internal_count=77236 43912 33324 13956
is_linear=0
shrinkage=0.01


Tree=57
num_leaves=5
num_cat=0
split_feature=0 5 0 1
split_gain=0.0434455 0.0246787 0.0200162 0.0198612
threshold=22801.000000000004 0.17525534462314793 89550.000000000015 0.07376324406224502
decision_type=2 2 2 2
left_child=3 2 -2 -1
right_child=1 -3 -4 -5
leaf_value=-2.3941530077304365e-06 4.6313136520786114e-06 5.6073447546470502e-05 5.160715007043768e-05 -2.5986188937472365e-05
leaf_weight=51600 18927 1371 1108 4196
leaf_count=51600 18927 1371 1108 4196
internal_value=0 1.22285e-05 8.22868e-06 -4.527e-06
internal_weight=77202 21406 20035 55796
internal_count=77202 21406 20035 55796
is_linear=0
shrinkage=0.01


Tree=58
num_leaves=5
num_cat=0
split_feature=1 0 5 2
split_gain=0.0434856 0.0416038 0.0207788 0.0176399
threshold=0.091379201842950467 24202.500000000004 0.17525534462314793 0.17151148730620994
decision_type=2 2 2 2
left_child=1 3 -3 -1
right_child=-2 2 -4 -5
leaf_value=-4.812947245816103e-06 -3.184278627833145e-05 1.1026250830586479e-05 5.9468442362756987e-05 9.565430112421979e-06
leaf_weight=45158 3951 17131 1218 9926
leaf_count=45158 3951 17131 1218 9926
internal_value=1.69769e-07 2.16474e-06 1.53333e-05 -1.85886e-06
internal_weight=77384 73433 18349 55084
internal_count=77384 73433 18349 55084
is_linear=0
shrinkage=0.01


Tree=59
num_leaves=5
num_cat=0
split_feature=1 3 5 5
split_gain=0.0514313 0.0374527 0.0330892 0.0202008
threshold=-0.16976384333993325 0.14623113673625299 -0.019693992971061895 0.19259297452308907
decision_type=2 2 2 2
left_child=-1 2 -2 -4
right_child=1 -3 3 -5
leaf_value=0.00012942441764133016 -7.3606861480450569e-06 -5.686395474906159e-05 3.6048166162988772e-06 3.1024584890140423e-05
leaf_weight=306 31153 1159 41230 3231
leaf_count=306 31153 1159 41230 3231
internal_value=0 -3.43355e-07 2.58855e-07 6.04758e-06
internal_weight=77079 76773 75614 44461
internal_count=77079 76773 75614 44461
is_linear=0
shrinkage=0.01


Tree=60
num_leaves=5
num_cat=0
split_feature=3 0 3 6
split_gain=0.0496661 0.0354957 0.0280499 0.0169164
threshold=-0.16974500551241087 29202.500000000004 0.070770674969121414 0.036992714021712059
decision_type=2 2 2 2
left_child=-1 2 3 -2
right_child=1 -3 -4 -5
leaf_value=0.00012483309063988034 -5.497761603727458e-06 1.3781187568091468e-05 -2.6291483957134678e-05 5.8788567396363145e-06
leaf_weight=317 39429 13700 5259 18394
leaf_count=317 39429 13700 5259 18394
internal_value=0 -4.96288e-07 -3.91417e-06 -1.53286e-06
internal_weight=77099 76782 63082 57823
internal_count=77099 76782 63082 57823
is_linear=0
shrinkage=0.01


Tree=61
num_leaves=5
num_cat=0
split_feature=5 0 6 0
split_gain=0.0387385 0.0256207 0.0222515 0.0106232
threshold=-1.0000000180025095e-35 22009.500000000004 0.045132904067434858 46602.500000000007
decision_type=2 2 2 2
left_child=2 -2 3 -1
right_child=1 -3 -4 -5
leaf_value=-1.3641999892600142e-05 5.8671664520607841e-07 1.8777648195825933e-05 5.1786390576765569e-06 3.9149117356920406e-06
leaf_weight=26982 26768 12554 8760 2020
leaf_count=26982 26768 12554 8760 2020
internal_value=0 6.90316e-06 -7.27753e-06 -1.17295e-05
internal_weight=77084 39322 37762 29002
internal_count=77084 39322 37762 29002
is_linear=0
shrinkage=0.01


Tree=62
num_leaves=5
num_cat=0
split_feature=1 5 3 0
split_gain=0.04736 0.0417294 0.0321192 0.0234048
threshold=-0.16976384333993325 0.17525534462314793 0.14623113673625299 89550.000000000015
decision_type=2 2 2 2
left_child=-1 2 3 -2
right_child=1 -3 -4 -5
leaf_value=0.00012103976813071255 -1.8817753354544399e-06 3.0572152708577376e-05 -5.4007165270623562e-05 4.4914085538833053e-05
leaf_weight=323 70629 4138 1185 1065
leaf_count=323 70629 4138 1185 1065
internal_value=2.14646e-07 -3.31812e-08 -2.04555e-06 -9.07362e-07
internal_weight=77340 77017 72879 71694
internal_count=77340 77017 72879 71694
is_linear=0
shrinkage=0.01


Tree=63
num_leaves=5
num_cat=0
split_feature=0 3 2 6
split_gain=0.0399906 0.0320857 0.0202867 0.0205604
threshold=32802.500000000007 0.070770674969121414 0.17151148730620994 0.036992714021712059
decision_type=2 2 2 2
left_child=1 2 3 -1
right_child=-2 -3 -4 -5
leaf_value=-8.2152662636789486e-06 1.7181018373623583e-05 -2.6295245646625503e-05 1.1378948066087e-05 5.1699041544565269e-06
leaf_weight=34171 11408 5517 10749 15398
leaf_count=34171 11408 5517 10749 15398
internal_value=0 -3.09689e-06 -6.43272e-07 -3.65384e-06
internal_weight=77243 65835 60318 49569
internal_count=77243 65835 60318 49569
is_linear=0
shrinkage=0.01


Tree=64
num_leaves=5
num_cat=0
split_feature=3 0 5 1
split_gain=0.0382196 0.036563 0.0226058 0.0176787
threshold=0.14623113673625299 18501.000000000004 -1.0000000180025095e-35 0.20900999765225398
decision_type=2 2 2 2
left_child=1 -1 -3 -2
right_child=3 2 -4 -5
leaf_value=-4.0958552094623145e-06 -9.5459095808531934e-05 0 1.8058749494823449e-05 0
leaf_weight=47576 605 12585 15917 593
leaf_count=47576 605 12585 15917 593
internal_value=0 9.74501e-07 1.01396e-05 -5.59345e-05
internal_weight=77276 76078 28502 1198
internal_count=77276 76078 28502 1198
is_linear=0
shrinkage=0.01


Tree=65
num_leaves=5
num_cat=0
split_feature=1 3 0 5
split_gain=0.0406262 0.039065 0.0320758 0.0212886
threshold=-0.16976384333993325 0.14623113673625299 29202.500000000004 -0.015318968877620798
decision_type=2 2 2 2
left_child=-1 2 3 -2
right_child=1 -3 -4 -5
leaf_value=0.00011451181666531211 -9.3932912789350382e-06 -5.6429929795478171e-05 1.437691599047546e-05 2.1033880900210821e-06
leaf_weight=308 27112 1231 13506 34972
leaf_count=308 27112 1231 13506 34972
internal_value=0 -4.74171e-07 1.72865e-07 -2.59509e-06
internal_weight=77129 76821 75590 62084
internal_count=77129 76821 75590 62084
is_linear=0
shrinkage=0.01


Tree=66
num_leaves=5
num_cat=0
split_feature=3 0 2 6
split_gain=0.0368561 0.0405313 0.0131575 0.0125801
threshold=0.091477035860295763 17170.000000000004 0.23917651395112663 0.05351957489360696
decision_type=2 2 2 2
left_child=1 2 3 -1
right_child=-2 -3 -4 -5
leaf_value=-1.0331275261024796e-05 -2.9333930080046595e-05 1.0960312181289291e-05 6.7335002260976288e-06 2.023379118050447e-06
leaf_weight=26976 3965 30341 7548 8345
leaf_count=26976 3965 30341 7548 8345
internal_value=6.79089e-08 1.93367e-06 -3.98856e-06 -6.84613e-06
internal_weight=77175 73210 42869 35321
internal_count=77175 73210 42869 35321
is_linear=0
shrinkage=0.01


Tree=67
num_leaves=5
num_cat=0
split_feature=5 1 1 6
split_gain=0.0383538 0.0347174 0.0296315 0.0238823
threshold=0.19259297452308907 0.062511017039408076 -0.12583607036907446 0.036992714021712059
decision_type=2 2 2 2
left_child=1 2 -1 -4
right_child=-2 -3 3 -5
leaf_value=7.7629205713999083e-05 3.3764403041303095e-05 -2.0639220204477818e-05 -3.5959660560688139e-06 9.4784959770383597e-06
leaf_weight=503 3289 8183 44811 20149
leaf_count=503 3289 8183 44811 20149
internal_value=1.44271e-07 -1.08584e-06 1.05299e-06 1.51574e-07
internal_weight=76935 73646 65463 64960
internal_count=76935 73646 65463 64960
is_linear=0
shrinkage=0.01


Tree=68
num_leaves=5
num_cat=0
split_feature=5 0 6 0
split_gain=0.0365201 0.0237841 0.022111 0.00980711
threshold=-1.0000000180025095e-35 18701.000000000004 0.045132904067434858 48123.000000000007
decision_type=2 2 2 2
left_child=2 -2 3 -1
right_child=1 -3 -4 -5
leaf_value=-1.3337441221824831e-05 0 1.6030360326740481e-05 5.3165983144839333e-06 3.7645287518623743e-06
leaf_weight=27195 23398 15998 8746 1841
leaf_count=27195 23398 15998 8746 1841
internal_value=0 6.63194e-06 -7.12722e-06 -1.15643e-05
internal_weight=77178 39396 37782 29036
internal_count=77178 39396 37782 29036
is_linear=0
shrinkage=0.01


Tree=69
num_leaves=5
num_cat=0
split_feature=3 0 5 1
split_gain=0.0377867 0.0363678 0.022022 0.0166981
threshold=0.14623113673625299 28025.000000000004 -0.0041790303573650987 0.20900999765225398
decision_type=2 2 2 2
left_child=1 2 -1 -2
right_child=3 -3 -4 -5
leaf_value=-8.0285993451552283e-06 -9.3953836997783541e-05 1.5765740198936855e-05 3.7477949933335555e-06 0
leaf_weight=29675 599 14660 31882 593
leaf_count=29675 599 14660 31882 593
internal_value=3.44242e-07 1.47433e-06 -1.60441e-06 -5.51131e-05
internal_weight=77409 76217 61557 1192
internal_count=77409 76217 61557 1192
is_linear=0
shrinkage=0.01


Tree=70
num_leaves=5
num_cat=0
split_feature=1 1 5 0
split_gain=0.0379785 0.0365269 0.0345118 0.0206433
threshold=0.14621883511108238 -0.16976384333993325 0.18670293821291939 89550.000000000015
decision_type=2 2 2 2
left_child=1 -1 3 -3
right_child=-2 2 -4 -5
leaf_value=0.00011180912904560282 -5.5801917625611018e-05 -1.4087395689104146e-06 3.1411012686524582e-05 4.2566709147656618e-05
leaf_weight=301 1171 71265 3522 1070
leaf_count=301 1171 71265 3522 1070
internal_value=3.1239e-07 1.43817e-06 7.35833e-07 -4.81463e-07
internal_weight=77329 76158 75857 72335
internal_count=77329 76158 75857 72335
is_linear=0
shrinkage=0.01


Tree=71
num_leaves=5
num_cat=0
split_feature=3 0 2 6
split_gain=0.0352602 0.0351031 0.0169474 0.0129192
threshold=0.091477035860295763 25402.500000000004 0.17151148730620994 0.036992714021712059
decision_type=2 2 2 2
left_child=1 2 3 -1
right_child=-2 -3 -4 -5
leaf_value=-8.3676611332857176e-06 -2.9279511338762367e-05 1.4477560599485297e-05 9.2079842984840262e-06 2.1037048790889985e-06
leaf_weight=32012 3884 16790 10234 14546
leaf_count=32012 3884 16790 10234 14546
internal_value=0 1.63159e-06 -1.81413e-06 -4.66656e-06
internal_weight=77466 73582 56792 46558
internal_count=77466 73582 56792 46558
is_linear=0
shrinkage=0.01


Tree=72
num_leaves=5
num_cat=0
split_feature=5 0 6 5
split_gain=0.0365628 0.0244195 0.017058 0.0107177
threshold=-0.019693992971061895 18701.000000000004 0.045132904067434858 0.18670293821291939
decision_type=2 2 2 2
left_child=2 -2 -1 -3
right_child=1 3 -4 -5
leaf_value=-1.2380188146590349e-05 0 1.0720641259957936e-05 3.2443880032677929e-06 4.5358734582189058e-05
leaf_weight=25025 27228 16585 7182 1486
leaf_count=25025 27228 16585 7182 1486
internal_value=0 5.6593e-06 -8.27502e-06 1.46769e-05
internal_weight=77506 45299 32207 18071
internal_count=77506 45299 32207 18071
is_linear=0
shrinkage=0.01


Tree=73
num_leaves=5
num_cat=0
split_feature=0 3 5 6
split_gain=0.0378112 0.0318635 0.0199239 0.0145228
threshold=32802.500000000007 0.091477035860295763 -0.015318968877620798 0.045132904067434858
decision_type=2 2 2 2
left_child=1 2 3 -1
right_child=-2 -3 -4 -5
leaf_value=-1.1643867023933999e-05 1.7202777005847283e-05 -3.322717952411658e-05 3.9624649037062375e-06 3.8381863417944274e-06
leaf_weight=20761 11399 3237 35666 6195
leaf_count=20761 11399 3237 35666 6195
internal_value=1.53933e-07 -2.49334e-06 -5.85052e-07 -7.34386e-06
internal_weight=77258 65859 62622 26956
internal_count=77258 65859 62622 26956
is_linear=0
shrinkage=0.01


Tree=74
num_leaves=5
num_cat=0
split_feature=1 0 1 5
split_gain=0.032449 0.0321728 0.021727 0.0197743
threshold=0.14621883511108238 30109.500000000004 0.20900999765225398 -0.017577561062708798
decision_type=2 2 2 2
left_child=1 3 -2 -1
right_child=2 -3 -4 -5
leaf_value=-8.593864849788258e-06 -9.6277226344795093e-05 1.5367956649042949e-05 0 2.4602072862519475e-06
leaf_weight=27050 580 12762 596 36267
leaf_count=27050 580 12762 596 36267
internal_value=0 6.95204e-07 -5.22192e-05 -1.94643e-06
internal_weight=77255 76079 1176 63317
internal_count=77255 76079 1176 63317
is_linear=0
shrinkage=0.01


Tree=75
num_leaves=5
num_cat=0
split_feature=3 1 5 6
split_gain=0.03657 0.0303883 0.0330023 0.0180453
threshold=0.14623113673625299 -0.16976384333993325 0.18670293821291939 0.024064799826014154
decision_type=2 2 2 2
left_child=1 -1 3 -3
right_child=-2 2 -4 -5
leaf_value=9.8845625078036823e-05 -5.4227826472154556e-05 -5.0767345722444881e-06 3.022063518134235e-05 5.1184874135358137e-06
leaf_weight=316 1224 45444 3536 26959
leaf_count=316 1224 45444 3536 26959
internal_value=0 8.58195e-07 1.86431e-07 -1.00434e-06
internal_weight=77479 76255 75939 72403
internal_count=77479 76255 75939 72403
is_linear=0
shrinkage=0.01


Tree=76
num_leaves=5
num_cat=0
split_feature=5 0 6 6
split_gain=0.0337303 0.0241344 0.0152498 0.0111469
threshold=-0.019693992971061895 21802.000000000004 0.048710850600986212 -0.050891884420203343
decision_type=2 2 2 2
left_child=2 -2 -1 -3
right_child=1 3 -4 -5
leaf_value=-1.177985134720667e-05 0 0 3.1828315515844562e-06 2.0808098621735091e-05
leaf_weight=25404 30708 3308 6733 11161
leaf_count=25404 30708 3308 6733 11161
internal_value=0 5.37362e-06 -8.0227e-06 1.60298e-05
internal_weight=77314 45177 32137 14469
internal_count=77314 45177 32137 14469
is_linear=0
shrinkage=0.01


Tree=77
num_leaves=5
num_cat=0
split_feature=3 5 5 1
split_gain=0.0331688 0.0303842 0.0176145 0.0146294
threshold=0.095897269316672765 -0.0022299415432984492 0.19259297452308907 -0.12583607036907446
decision_type=2 2 2 2
left_child=1 -1 3 -3
right_child=-2 2 -4 -5
leaf_value=-5.3206026265150167e-06 -2.994057982939774e-05 6.9812814301679812e-05 3.1466868552145102e-05 3.4985803162718455e-06
leaf_weight=34875 3598 377 3128 35081
leaf_count=34875 3598 377 3128 35081
internal_value=-7.48249e-08 1.11589e-06 7.45167e-06 4.76867e-06
internal_weight=77059 73461 38586 35458
internal_count=77059 73461 38586 35458
is_linear=0
shrinkage=0.01


Tree=78
num_leaves=5
num_cat=0
split_feature=1 0 5 6
split_gain=0.0396242 0.0303529 0.0273328 0.0185767
threshold=-0.16976384333993325 46602.500000000007 0.010611539965571902 0.036129844109688607
decision_type=2 2 2 2
left_child=-1 2 3 -2
right_child=1 -3 -4 -5
leaf_value=0.00011179943029914884 -1.2758245074708925e-05 2.1796733304946502e-05 3.7450550313266938e-06 1.3942254192883215e-06
leaf_weight=315 27947 5495 33162 10329
leaf_count=315 27947 5495 33162 10329
internal_value=0 -4.96274e-07 -2.49115e-06 -8.41664e-06
internal_weight=77248 76933 71438 38276
internal_count=77248 76933 71438 38276
is_linear=0
shrinkage=0.01


Tree=79
num_leaves=5
num_cat=0
split_feature=1 1 0 1
split_gain=0.0392333 0.0323992 0.0306142 0.0194566
threshold=-0.16976384333993325 0.14621883511108238 29202.500000000004 0.20900999765225398
decision_type=2 2 2 2
left_child=-1 2 -2 -3
right_child=1 3 -4 -5
leaf_value=0.00011254451568339995 -2.3225220647637868e-06 -9.22496482996671e-05 1.4227816746897253e-05 0
leaf_weight=309 62145 608 13518 639
leaf_count=309 62145 608 13518 639
internal_value=0 -2.01528e-07 3.70118e-07 -5.09051e-05
internal_weight=77219 76910 75663 1247
internal_count=77219 76910 75663 1247
is_linear=0
shrinkage=0.01


Tree=80
num_leaves=5
num_cat=0
split_feature=5 1 1 6
split_gain=0.0333965 0.0298856 0.0202905 0.0216258
threshold=0.17525534462314793 0.066099528059149759 -0.12583607036907446 0.036992714021712059
decision_type=2 2 2 2
left_child=1 2 -1 -4
right_child=-2 -3 3 -5
leaf_value=6.4762273656129198e-05 2.7613781978337126e-05 -2.0677897052063157e-05 -3.9308759937905718e-06 8.5089050943799002e-06
leaf_weight=486 4186 7307 44943 20277
leaf_count=486 4186 7307 44943 20277
internal_value=0 -1.42063e-06 4.16684e-07 0
internal_weight=77199 73013 65706 65220
internal_count=77199 73013 65706 65220
is_linear=0
shrinkage=0.01


Tree=81
num_leaves=5
num_cat=0
split_feature=1 1 5 0
split_gain=0.0349964 0.0329135 0.0269369 0.0187682
threshold=-0.16976384333993325 0.091379201842950467 0.19259297452308907 17001.000000000004
decision_type=2 2 2 2
left_child=-1 2 3 -2
right_child=1 -3 -4 -5
leaf_value=0.00010710431936697934 -4.8419385870092052e-06 -2.8596676123461562e-05 2.9889724083683594e-05 5.6529486282355882e-06
leaf_weight=303 40843 3992 3061 28862
leaf_count=303 40843 3992 3061 28862
internal_value=0 -4.85527e-07 7.82007e-07 -2.09503e-07
internal_weight=77061 76758 72766 69705
internal_count=77061 76758 72766 69705
is_linear=0
shrinkage=0.01


Tree=82
num_leaves=5
num_cat=0
split_feature=0 1 2 6
split_gain=0.0333036 0.0277155 0.017211 0.0143116
threshold=34002.500000000007 0.072140025240394159 0.17151148730620994 0.043280167243507757
decision_type=2 2 2 2
left_child=1 2 3 -1
right_child=-2 -3 -4 -5
leaf_value=-6.9384710587888854e-06 1.620699652882858e-05 -2.4807684553277621e-05 1.0363384195376965e-05 4.3070399188697916e-06
leaf_weight=36037 10660 5331 10934 14209
leaf_count=36037 10660 5331 10934 14209
internal_value=0 -2.82339e-06 -5.80673e-07 -3.36032e-06
internal_weight=77171 66511 61180 50246
internal_count=77171 66511 61180 50246
is_linear=0
shrinkage=0.01


Tree=83
num_leaves=5
num_cat=0
split_feature=0 5 3 6
split_gain=0.0384966 0.0308508 0.0318115 0.0219924
threshold=89550.000000000015 0.17525534462314793 0.057332334159096957 -0.0023481654344001497
decision_type=2 2 2 2
left_child=1 2 3 -1
right_child=-2 -3 -4 -5
leaf_value=-5.4006242393227678e-06 5.8463576863020072e-05 2.5859299479281019e-05 -1.9463090564987967e-05 6.3882547882543439e-06
leaf_weight=31049 1129 4196 9130 31791
leaf_count=31049 1129 4196 9130 31791
internal_value=4.17242e-07 -1.80968e-07 -1.97723e-06 2.45153e-07
internal_weight=77295 76166 71970 62840
internal_count=77295 76166 71970 62840
is_linear=0
shrinkage=0.01


Tree=84
num_leaves=5
num_cat=0
split_feature=3 5 3 6
split_gain=0.0400287 0.0340251 0.0264041 0.0225309
threshold=-0.16974500551241087 0.15739699988145958 0.062553763267599358 0.036992714021712059
decision_type=2 2 2 2
left_child=-1 2 3 -2
right_child=1 -3 -4 -5
leaf_value=0.0001127508043567244 -3.7653541574489927e-06 2.3959278467785982e-05 -1.8943672978325558e-05 9.1238454405084937e-06
leaf_weight=315 43991 5443 8131 19573
leaf_count=315 43991 5443 8131 19573
internal_value=3.21441e-07 0 -1.96802e-06 0
internal_weight=77453 77138 71695 63564
internal_count=77453 77138 71695 63564
is_linear=0
shrinkage=0.01


Tree=85
num_leaves=5
num_cat=0
split_feature=0 3 5 6
split_gain=0.0337202 0.0283094 0.0249998 0.0162207
threshold=53332.500000000007 0.091477035860295763 -0.0022299415432984492 0.045132904067434858
decision_type=2 2 2 2
left_child=1 2 3 -1
right_child=-2 -3 -4 -5
leaf_value=-1.0436769969537127e-05 2.8798065763655729e-05 -2.8581646151758146e-05 5.6818867193777517e-06 4.704738375735023e-06
leaf_weight=25340 3893 3640 36880 7732
leaf_count=25340 3893 3640 36880 7732
internal_value=0 -1.39409e-06 0 -6.29204e-06
internal_weight=77485 73592 69952 33072
internal_count=77485 73592 69952 33072
is_linear=0
shrinkage=0.01


Tree=86
num_leaves=5
num_cat=0
split_feature=3 3 5 6
split_gain=0.0366757 0.0307338 0.0266332 0.0183294
threshold=-0.16974500551241087 0.14623113673625299 0.17525534462314793 0.037856171137971302
decision_type=2 2 2 2
left_child=-1 2 3 -2
right_child=1 -3 -4 -5
leaf_value=0.0001104439444115119 -4.4078318352357826e-06 -5.0340225397072435e-05 2.5148138269775685e-05 6.4416166962715578e-06
leaf_weight=300 49550 1209 4157 22043
leaf_count=300 49550 1209 4157 22043
internal_value=5.70537e-09 -1.65641e-07 3.71468e-07 -7.87983e-07
internal_weight=77259 76959 75750 71593
internal_count=77259 76959 75750 71593
is_linear=0
shrinkage=0.01


Tree=87
num_leaves=5
num_cat=0
split_feature=3 5 0 3
split_gain=0.0320184 0.0262256 0.0172036 0.0167123
threshold=-0.16974500551241087 0.00098405635980485027 21425.000000000004 0.021705914605738053
decision_type=2 2 2 2
left_child=-1 3 -3 -2
right_child=1 2 -4 -5
leaf_value=0.00010225024344737118 -1.2540073233820341e-06 0 1.4261636034140447e-05 -1.6431122754987049e-05
leaf_weight=303 25657 25966 12994 12443
leaf_count=303 25657 25966 12994 12443
internal_value=0 -6.1042e-07 4.86637e-06 -6.73575e-06
internal_weight=77363 77060 38960 38100
internal_count=77363 77060 38960 38100
is_linear=0
shrinkage=0.01


Tree=88
num_leaves=5
num_cat=0
split_feature=1 5 1 0
split_gain=0.0328377 0.0348236 0.0265649 0.0206318
threshold=-0.16976384333993325 0.19259297452308907 0.063775192503451358 17170.000000000004
decision_type=2 2 2 2
left_child=-1 2 3 -2
right_child=1 -3 -4 -5
leaf_value=0.00010176004348438519 -4.7253653287843348e-06 3.1106239350892909e-05 -1.9314664007279176e-05 6.6850638734813801e-06
leaf_weight=315 38571 3267 8025 26894
leaf_count=315 38571 3267 8025 26894
internal_value=0 -4.66966e-07 -2.1429e-06 0
internal_weight=77072 76757 73490 65465
internal_count=77072 76757 73490 65465
is_linear=0
shrinkage=0.01


Tree=89
num_leaves=5
num_cat=0
split_feature=1 1 5 0
split_gain=0.0341246 0.0316512 0.0256366 0.0201029
threshold=-0.16976384333993325 0.14621883511108238 0.18670293821291939 89550.000000000015
decision_type=2 2 2 2
left_child=-1 2 3 -2
right_child=1 -3 -4 -5
leaf_value=0.0001039288856259587 -1.6087458780607822e-06 -5.0551886049086333e-05 2.7052513378570826e-05 4.2030200901517301e-05
leaf_weight=315 71126 1237 3465 1053
leaf_count=315 71126 1237 3465 1053
internal_value=0 -2.46524e-07 3.1205e-07 -6.94735e-07
internal_weight=77196 76881 75644 72179
internal_count=77196 76881 75644 72179
is_linear=0
shrinkage=0.01


Tree=90
num_leaves=5
num_cat=0
split_feature=0 1 6 5
split_gain=0.0335297 0.027589 0.0184383 0.0140776
threshold=34002.500000000007 0.066099528059149759 0.042351806240772762 -0.12918995858359528
decision_type=2 2 2 2
left_child=1 2 -1 -2
right_child=3 -3 -4 -5
leaf_value=-4.1463768092557022e-06 -3.6193145789038015e-06 -2.2163774381499833e-05 8.0468328216734176e-06 2.1206320905296836e-05
leaf_weight=42498 1334 6651 17268 9405
leaf_count=42498 1334 6651 17268 9405
internal_value=0 -2.7806e-06 -2.88758e-07 1.62602e-05
internal_weight=77156 66417 59766 10739
internal_count=77156 66417 59766 10739
is_linear=0
shrinkage=0.01


Tree=91
num_leaves=5
num_cat=0
split_feature=1 3 0 5
split_gain=0.0310938 0.0272184 0.0261753 0.0201129
threshold=-0.16976384333993325 0.14623113673625299 53332.500000000007 0.0097294730822726026
decision_type=2 2 2 2
left_child=-1 2 3 -2
right_child=1 -3 -4 -5
leaf_value=9.9098162350758304e-05 -5.9507934386233789e-06 -4.7441098387858999e-05 2.6223470667881069e-05 4.5416647831561877e-06
leaf_weight=316 37991 1205 3767 34061
leaf_count=316 37991 1205 3767 34061
internal_value=2.05274e-08 -1.26933e-07 3.6156e-07 -7.13142e-07
internal_weight=77340 77024 75819 72052
internal_count=77340 77024 75819 72052
is_linear=0
shrinkage=0.01


Tree=92
num_leaves=5
num_cat=0
split_feature=3 1 5 1
split_gain=0.0289201 0.0255321 0.0244428 0.0189814
threshold=0.14623113673625299 -0.16976384333993325 0.19259297452308907 0.20900999765225398
decision_type=2 2 2 2
left_child=1 -1 -3 -2
right_child=3 2 -4 -5
leaf_value=9.2402548113401225e-05 -8.9265889610800315e-05 -1.0325202428635759e-06 2.7151879836424282e-05 0
leaf_weight=301 598 72622 3210 590
leaf_count=301 598 72622 3210 590
internal_value=0 5.26001e-07 0 -4.91488e-05
internal_weight=77321 76133 75832 1188
internal_count=77321 76133 75832 1188
is_linear=0
shrinkage=0.01


Tree=93
num_leaves=5
num_cat=0
split_feature=0 5 3 6
split_gain=0.0306905 0.024994 0.0234136 0.0167871
threshold=89550.000000000015 0.026153073083772006 0.037405311504183358 -1.0000000180025095e-35
decision_type=2 2 2 2
left_child=1 2 3 -1
right_child=-2 -3 -4 -5
leaf_value=-7.9050335434373078e-06 5.2101876728121046e-05 5.8782541357541688e-06 -1.9358819397306601e-05 5.6924585625968156e-06
leaf_weight=19567 1114 30847 10038 15811
leaf_count=19567 1114 30847 10038 15811
internal_value=0 -7.56319e-07 -5.70297e-06 -1.26278e-06
internal_weight=77377 76263 45416 35378
internal_count=77377 76263 45416 35378
is_linear=0
shrinkage=0.01


Tree=94
num_leaves=5
num_cat=0
split_feature=1 5 3 1
split_gain=0.0314304 0.0282621 0.0254009 0.0212749
threshold=-0.16976384333993325 0.16116015033422001 0.14623113673625299 0.20900999765225398
decision_type=2 2 2 2
left_child=-1 2 -2 -4
right_child=1 -3 3 -5
leaf_value=0.00010128266695293569 -8.4834528535949692e-07 2.2456908064147774e-05 -9.2928003332828427e-05 0
leaf_weight=306 70598 5092 564 584
leaf_count=306 70598 5092 564 584
internal_value=1.21085e-07 -2.21514e-08 -1.89645e-06 -4.8909e-05
internal_weight=77144 76838 71746 1148
internal_count=77144 76838 71746 1148
is_linear=0
shrinkage=0.01


Tree=95
num_leaves=5
num_cat=0
split_feature=5 0 6 2
split_gain=0.0287904 0.0193887 0.0147087 0.0109066
threshold=-0.015318968877620798 18701.000000000004 0.045132904067434858 1.0000000180025095e-35
decision_type=2 2 2 2
left_child=2 -2 -1 -3
right_child=1 3 -4 -5
leaf_value=-1.067030998183823e-05 0 2.4886804511972004e-05 3.6082062964525074e-06 5.0917658252566147e-06
leaf_weight=25672 26344 6576 7517 11009
leaf_count=25672 26344 6576 7517 11009
internal_value=0 5.50044e-06 -6.83375e-06 1.3632e-05
internal_weight=77118 43929 33189 17585
internal_count=77118 43929 33189 17585
is_linear=0
shrinkage=0.01


Tree=96
num_leaves=5
num_cat=0
split_feature=0 3 2 6
split_gain=0.0292224 0.0236989 0.0216966 0.0164691
threshold=46602.500000000007 0.091477035860295763 0.17151148730620994 0.0059920656903006504
decision_type=2 2 2 2
left_child=1 2 3 -1
right_child=-2 -3 -4 -5
leaf_value=-8.2205474378411989e-06 2.231990027178389e-05 -2.6600506119405598e-05 1.1495539585487827e-05 2.283993856858214e-06
leaf_weight=29862 5470 3627 12602 25538
leaf_count=29862 5470 3627 12602 25538
internal_value=0 -1.65822e-06 -3.35838e-08 -3.01723e-06
internal_weight=77099 71629 68002 55400
internal_count=77099 71629 68002 55400
is_linear=0
shrinkage=0.01


Tree=97
num_leaves=5
num_cat=0
split_feature=1 5 3 6
split_gain=0.0277956 0.0286702 0.0243722 0.0160898
threshold=-0.16976384333993325 0.19259297452308907 0.14623113673625299 0.043280167243507757
decision_type=2 2 2 2
left_child=-1 2 3 -2
right_child=1 -3 -4 -5
leaf_value=9.4537992362100215e-05 -3.9886402627942035e-06 2.8326093281954463e-05 -4.6934773094364135e-05 6.2903252198888381e-06
leaf_weight=310 51896 3286 1193 20874
leaf_count=310 51896 3286 1193 20874
internal_value=0 -2.40934e-07 -1.78069e-06 -7.6527e-07
internal_weight=77559 77249 73963 72770
internal_count=77559 77249 73963 72770
is_linear=0
shrinkage=0.01


Tree=98
num_leaves=5
num_cat=0
split_feature=1 1 0 2
split_gain=0.0328626 0.0267465 0.0237403 0.0160749
threshold=-0.16976384333993325 0.14621883511108238 34002.500000000007 0.17151148730620994
decision_type=2 2 2 2
left_child=-1 2 3 -2
right_child=1 -3 -4 -5
leaf_value=0.00010184064248814373 -4.3096907275817731e-06 -4.7833158217413096e-05 1.449949789908767e-05 8.160530880804103e-06
leaf_weight=316 53480 1168 10407 12087
leaf_count=316 53480 1168 10407 12087
internal_value=0 -2.18213e-07 2.50867e-07 -1.70578e-06
internal_weight=77458 77142 75974 65567
internal_count=77458 77142 75974 65567
is_linear=0
shrinkage=0.01


Tree=99
num_leaves=5
num_cat=0
split_feature=1 5 1 6
split_gain=0.0309174 0.0285861 0.0240881 0.019337
threshold=-0.16976384333993325 0.19259297452308907 0.063775192503451358 0.024064799826014154
decision_type=2 2 2 2
left_child=-1 2 3 -2
right_child=1 -3 -4 -5
leaf_value=0.0001012576070983773 -3.7959116634536107e-06 2.8440831203370492e-05 -1.8051407901819916e-05 7.407508598783081e-06
leaf_weight=301 41312 3291 7995 24396
leaf_count=301 41312 3291 7995 24396
internal_value=4.80082e-08 -8.85564e-08 -1.634e-06 5.9333e-08
internal_weight=77295 76994 73703 65708
internal_count=77295 76994 73703 65708
is_linear=0
shrinkage=0.01


Tree=100
num_leaves=5
num_cat=0
split_feature=5 0 6 6
split_gain=0.0297511 0.0196301 0.01337 0.0107363
threshold=-0.016344551228050699 18501.000000000004 0.047806644798646505 -0.053703691687425788
decision_type=2 2 2 2
left_child=2 -2 -1 -3
right_child=1 3 -4 -5
leaf_value=-1.0749819609547e-05 0 0 2.8512054077612541e-06 1.7377848917950282e-05
leaf_weight=26009 26534 3673 7139 14189
leaf_count=26009 26534 3673 7139 14189
internal_value=0 5.30286e-06 -7.21726e-06 1.34085e-05
internal_weight=77544 44396 33148 17862
internal_count=77544 44396 33148 17862
is_linear=0
shrinkage=0.01


Tree=101
num_leaves=5
num_cat=0
split_feature=1 5 1 6
split_gain=0.0255052 0.0240723 0.0238645 0.019924
threshold=-0.16976384333993325 0.19259297452308907 0.063775192503451358 0.024064799826014154
decision_type=2 2 2 2
left_child=-1 2 3 -2
right_child=1 -3 -4 -5
leaf_value=9.1678291389295179e-05 -3.6889326764526111e-06 2.6291408902712464e-05 -1.7862370656160698e-05 7.6802952529895811e-06
leaf_weight=303 41250 3254 7963 24315
leaf_count=303 41250 3254 7963 24315
internal_value=7.42379e-08 -2.73721e-08 -1.46429e-06 2.22372e-07
internal_weight=77085 76782 73528 65565
internal_count=77085 76782 73528 65565
is_linear=0
shrinkage=0.01


Tree=102
num_leaves=5
num_cat=0
split_feature=1 5 3 1
split_gain=0.0272515 0.024156 0.0221089 0.0180686
threshold=-0.16976384333993325 0.19259297452308907 0.14623113673625299 0.20900999765225398
decision_type=2 2 2 2
left_child=-1 2 -2 -4
right_child=1 -3 3 -5
leaf_value=9.3821018436375739e-05 -5.6919491712308847e-07 2.6010845090727574e-05 -8.5124163320415006e-05 0
leaf_weight=309 72816 3311 575 598
leaf_count=309 72816 3311 575 598
internal_value=1.37034e-08 -1.03157e-07 -1.54223e-06 -4.48762e-05
internal_weight=77609 77300 73989 1173
internal_count=77609 77300 73989 1173
is_linear=0
shrinkage=0.01


Tree=103
num_leaves=5
num_cat=0
split_feature=3 0 1 1
split_gain=0.0270496 0.0279634 0.0176007 0.0192091
threshold=0.091477035860295763 17170.000000000004 0.0051368713865361003 -0.04279356561627029
decision_type=2 2 2 2
left_child=1 -1 3 -3
right_child=-2 2 -4 -5
leaf_value=-3.4556188244166107e-06 -2.5645032351159182e-05 1.5095700702874377e-05 1.9438135514165972e-05 -4.6618481920438656e-06
leaf_weight=42931 3891 7667 10865 11853
leaf_count=42931 3891 7667 10865 11853
internal_value=0 1.40947e-06 8.94151e-06 2.07408e-06
internal_weight=77207 73316 30385 19520
internal_count=77207 73316 30385 19520
is_linear=0
shrinkage=0.01


Tree=104
num_leaves=5
num_cat=0
split_feature=0 3 1 6
split_gain=0.0256237 0.0134949 0.0110249 0.00957921
threshold=18501.000000000004 0.095897269316672765 -0.020673454270692997 -0.0031631830419782494
decision_type=2 2 2 2
left_child=2 3 -1 -2
right_child=1 -3 -4 -5
leaf_value=6.8085302816822941e-07 1.8220028177571173e-06 -1.7932803143205587e-05 -8.2438253595821445e-06 1.572123799322919e-05
leaf_weight=19755 13326 1409 28370 14313
leaf_count=19755 13326 1409 28370 14313
internal_value=4.66445e-08 7.71229e-06 -4.16475e-06 9.74355e-06
internal_weight=77173 29048 48125 27639
internal_count=77173 29048 48125 27639
is_linear=0
shrinkage=0.01


Tree=105
num_leaves=5
num_cat=0
split_feature=1 5 1 0
split_gain=0.0337356 0.0233304 0.0213816 0.0200103
threshold=-0.16976384333993325 0.19259297452308907 0.14621883511108238 89550.000000000015
decision_type=2 2 2 2
left_child=-1 2 3 -2
right_child=1 -3 -4 -5
leaf_value=0.00010290690923501296 -1.4708828616114656e-06 2.5676308314746502e-05 -4.4146577464812629e-05 4.2000585842797747e-05
leaf_weight=318 71646 3279 1173 1059
leaf_count=318 71646 3279 1173 1059
internal_value=5.53892e-08 -1.09964e-07 -1.52534e-06 -5.62323e-07
internal_weight=77475 77157 73878 72705
internal_count=77475 77157 73878 72705
is_linear=0
shrinkage=0.01


Tree=106
num_leaves=5
num_cat=0
split_feature=1 3 5 0
split_gain=0.0318856 0.0248341 0.0266909 0.0175547
threshold=-0.16976384333993325 0.091477035860295763 0.19259297452308907 17001.000000000004
decision_type=2 2 2 2
left_child=-1 2 3 -2
right_child=1 -3 -4 -5
leaf_value=0.00010068712888919068 -4.2104212848208521e-06 -2.4637154463334201e-05 3.0072356276072971e-05 5.9503206111016058e-06
leaf_weight=315 41107 3900 3079 28998
leaf_count=315 41107 3900 3079 28998
internal_value=3.58502e-07 0 1.25817e-06 0
internal_weight=77399 77084 73184 70105
internal_count=77399 77084 73184 70105
is_linear=0
shrinkage=0.01


Tree=107
num_leaves=5
num_cat=0
split_feature=0 5 1 0
split_gain=0.025616 0.0150432 0.0113533 0.0101518
threshold=18501.000000000004 0.018200870740175502 -0.019208807857299347 97550.000000000015
decision_type=2 2 2 2
left_child=2 3 -1 -2
right_child=1 -3 -4 -5
leaf_value=2.9271879127607149e-07 -1.0612476259024702e-06 1.512307437022453e-05 -8.675432784082459e-06 3.9061695524324886e-05
leaf_weight=20583 14680 13622 27688 654
leaf_count=20583 14680 13622 27688 654
internal_value=0 7.45948e-06 -4.43708e-06 0
internal_weight=77227 28956 48271 15334
internal_count=77227 28956 48271 15334
is_linear=0
shrinkage=0.01


Tree=108
num_leaves=5
num_cat=0
split_feature=0 3 5 6
split_gain=0.0295372 0.0159397 0.0204222 0.0156391
threshold=29202.500000000004 0.027837302787313601 0.064059290067610616 0.041433632904842609
decision_type=2 2 2 2
left_child=1 3 -3 -1
right_child=-2 2 -4 -5
leaf_value=-3.7552149053149572e-06 1.3158910900633905e-05 -1.8274470754804501e-05 5.4487530549456339e-06 8.8029309561576236e-06
leaf_weight=33543 13920 12198 3560 14077
leaf_count=33543 13920 12198 3560 14077
internal_value=0 -2.92782e-06 -1.16458e-05 0
internal_weight=77298 63378 15758 47620
internal_count=77298 63378 15758 47620
is_linear=0
shrinkage=0.01


Tree=109
num_leaves=5
num_cat=0
split_feature=0 3 0 5
split_gain=0.0272981 0.0242563 0.018448 0.0118136
threshold=89550.000000000015 0.091477035860295763 17001.000000000004 0.022118402251370201
decision_type=2 2 2 2
left_child=1 2 -1 -4
right_child=-2 -3 3 -5
leaf_value=-3.4573233208577219e-06 4.8772205611718996e-05 -2.5056374360773482e-05 0 1.346103037310032e-05
leaf_weight=42736 1136 3882 15749 13961
leaf_count=42736 1136 3882 15749 13961
internal_value=0 -5.87945e-07 4.47287e-07 6.73696e-06
internal_weight=77464 76328 72446 29710
internal_count=77464 76328 72446 29710
is_linear=0
shrinkage=0.01


Tree=110
num_leaves=5
num_cat=0
split_feature=0 3 2 6
split_gain=0.0240639 0.0226305 0.0171648 0.0131969
threshold=53332.500000000007 0.091477035860295763 0.17151148730620994 0.0059920656903006504
decision_type=2 2 2 2
left_child=1 2 3 -1
right_child=-2 -3 -4 -5
leaf_value=-7.29060362660848e-06 2.4104038812595893e-05 -2.5795971938363569e-05 1.010802655001802e-05 1.9486205696484311e-06
leaf_weight=30502 3827 3675 12869 26330
leaf_count=30502 3827 3675 12869 26330
internal_value=-4.58933e-08 -1.57818e-06 -1.41781e-08 -2.65822e-06
internal_weight=77203 73376 69701 56832
internal_count=77203 73376 69701 56832
is_linear=0
shrinkage=0.01


Tree=111
num_leaves=5
num_cat=0
split_feature=0 5 3 6
split_gain=0.0242126 0.0225366 0.0191126 0.0136506
threshold=89550.000000000015 0.013342263759839051 0.024084862503980852 -0.00079487938797204985
decision_type=2 2 2 2
left_child=1 2 3 -1
right_child=-2 -3 -4 -5
leaf_value=-7.3122107140214941e-06 4.6143698606523984e-05 5.1760989924021696e-06 -1.6111984259398789e-05 6.2554138821438876e-06
leaf_weight=16060 1128 34636 12509 13142
leaf_count=16060 1128 34636 12509 13142
internal_value=0 -4.91135e-07 -5.67658e-06 -5.21393e-07
internal_weight=77475 76347 41711 29202
internal_count=77475 76347 41711 29202
is_linear=0
shrinkage=0.01


Tree=112
num_leaves=5
num_cat=0
split_feature=0 1 0 2
split_gain=0.0247931 0.0226768 0.0184807 0.0147345
threshold=89550.000000000015 0.066099528059149759 17170.000000000004 -0.0055201823975698991
decision_type=2 2 2 2
left_child=1 2 -1 -4
right_child=-2 -3 3 -5
leaf_value=-2.7537992656519888e-06 4.683182946514153e-05 -1.6847055891573199e-05 1.7507833292714595e-05 9.1274478203340591e-07
leaf_weight=40704 1125 7693 10091 17599
leaf_count=40704 1125 7693 10091 17599
internal_value=4.85482e-08 -3.80624e-07 1.17922e-06 7.68293e-06
internal_weight=77212 76087 68394 27690
internal_count=77212 76087 68394 27690
is_linear=0
shrinkage=0.01


Tree=113
num_leaves=5
num_cat=0
split_feature=3 5 6 5
split_gain=0.0241502 0.0228358 0.0126524 0.0144822
threshold=0.091477035860295763 0.19259297452308907 0.049652726346244104 -1.0000000180025095e-35
decision_type=2 2 2 2
left_child=1 2 3 -1
right_child=-2 -3 -4 -5
leaf_value=-7.4047459094821718e-06 -2.3817717345628369e-05 2.7775475593640768e-05 7.4460007317510325e-06 2.809734187091242e-06
leaf_weight=27649 3984 3160 18129 24356
leaf_count=27649 3984 3160 18129 24356
internal_value=0 1.45269e-06 0 -2.23634e-06
internal_weight=77278 73294 70134 52005
internal_count=77278 73294 70134 52005
is_linear=0
shrinkage=0.01


Tree=114
num_leaves=5
num_cat=0
split_feature=0 3 2 6
split_gain=0.0235945 0.0219509 0.0186993 0.0144787
threshold=53332.500000000007 0.091477035860295763 0.17151148730620994 0.0059920656903006504
decision_type=2 2 2 2
left_child=1 2 3 -1
right_child=-2 -3 -4 -5
leaf_value=-7.2283924648902349e-06 2.3860811194169615e-05 -2.4944633033954466e-05 1.0915177530658603e-05 2.5127632616741272e-06
leaf_weight=30696 3968 3688 12988 26362
leaf_count=30696 3968 3688 12988 26362
internal_value=0 -1.16472e-06 0 -2.37727e-06
internal_weight=77702 73734 70046 57058
internal_count=77702 73734 70046 57058
is_linear=0
shrinkage=0.01


Tree=115
num_leaves=5
num_cat=0
split_feature=1 3 0 1
split_gain=0.0312823 0.0216444 0.0195122 0.0153844
threshold=-0.16976384333993325 0.14623113673625299 29202.500000000004 0.20900999765225398
decision_type=2 2 2 2
left_child=-1 2 -2 -3
right_child=1 3 -4 -5
leaf_value=0.0001002797198749182 -1.9693018703198356e-06 -7.7484699868246424e-05 1.1248536505629604e-05 0
leaf_weight=310 62054 617 13529 589
leaf_count=310 62054 617 13529 589
internal_value=0 -2.75716e-07 1.3208e-07 -4.23996e-05
internal_weight=77099 76789 75583 1206
internal_count=77099 76789 75583 1206
is_linear=0
shrinkage=0.01


Tree=116
num_leaves=5
num_cat=0
split_feature=0 1 5 5
split_gain=0.0262347 0.019323 0.0179332 0.0129211
threshold=46602.500000000007 0.14621883511108238 -1.0000000180025095e-35 -0.15673405013392858
decision_type=2 2 2 2
left_child=1 2 -1 -2
right_child=3 -3 -4 -5
leaf_value=-6.1647070743644966e-06 -1.5590694409520326e-06 -4.4424249214769298e-05 3.7864675082920396e-06 2.7061963326403928e-05
leaf_weight=34721 524 1064 36225 5052
leaf_count=34721 524 1064 36225 5052
internal_value=0 -1.72434e-06 -8.01748e-07 2.07859e-05
internal_weight=77586 72010 70946 5576
internal_count=77586 72010 70946 5576
is_linear=0
shrinkage=0.01


Tree=117
num_leaves=5
num_cat=0
split_feature=1 5 6 0
split_gain=0.0271933 0.0205649 0.0154895 0.0108268
threshold=-0.16976384333993325 0.00098405635980485027 0.049652726346244104 24409.500000000004
decision_type=2 2 2 2
left_child=-1 2 -2 -3
right_child=1 3 -4 -5
leaf_value=9.3400383189307115e-05 -9.1893693219970175e-06 7.5370383584763076e-07 5.1509719346531e-06 1.3689708431095415e-05
leaf_weight=311 30016 28323 8117 10265
leaf_count=311 30016 28323 8117 10265
internal_value=0 -1.58241e-07 -5.61238e-06 4.7133e-06
internal_weight=77032 76721 38133 38588
internal_count=77032 76721 38133 38588
is_linear=0
shrinkage=0.01


Tree=118
num_leaves=5
num_cat=0
split_feature=3 0 5 3
split_gain=0.0261299 0.0252678 0.0195046 0.0139868
threshold=0.14623113673625299 89550.000000000015 0.16116015033422001 0.20922583053369798
decision_type=2 2 2 2
left_child=1 2 -1 -2
right_child=3 -3 -4 -5
leaf_value=-1.1366755701092825e-06 -8.1497921392838948e-05 4.9186062942259945e-05 1.9378363968317992e-05 0
leaf_weight=69901 594 1070 4953 599
leaf_count=69901 594 1070 4953 599
internal_value=0 9.11288e-07 0 -4.62225e-05
internal_weight=77117 75924 74854 1193
internal_count=77117 75924 74854 1193
is_linear=0
shrinkage=0.01


Tree=119
num_leaves=5
num_cat=0
split_feature=0 3 2 6
split_gain=0.0257559 0.0213767 0.0203441 0.0138332
threshold=89550.000000000015 0.091477035860295763 0.17151148730620994 0.0059920656903006504
decision_type=2 2 2 2
left_child=1 2 3 -1
right_child=-2 -3 -4 -5
leaf_value=-6.4249392520191037e-06 4.7012296811486145e-05 -2.3671554845823042e-05 1.1865200267154184e-05 3.0227694384466989e-06
leaf_weight=31761 1158 3809 13328 27182
leaf_count=31761 1158 3809 13328 27182
internal_value=6.90072e-09 -4.45985e-07 5.01526e-07 -1.72876e-06
internal_weight=77238 76080 72271 58943
internal_count=77238 76080 72271 58943
is_linear=0
shrinkage=0.01


Tree=120
num_leaves=5
num_cat=0
split_feature=3 5 3 6
split_gain=0.0280492 0.0228459 0.02068 0.0212782
threshold=-0.16974500551241087 0.15739699988145958 0.057332334159096957 0.024868348961357853
decision_type=2 2 2 2
left_child=-1 2 3 -2
right_child=1 -3 -4 -5
leaf_value=9.607794453620856e-05 -4.3031226746283089e-06 1.9265022995489548e-05 -1.5929591523487049e-05 7.8216236277999879e-06
leaf_weight=303 39793 5423 9233 22736
leaf_count=303 39793 5423 9233 22736
internal_value=0 -2.07319e-07 -1.95765e-06 0
internal_weight=77488 77185 71762 62529
internal_count=77488 77185 71762 62529
is_linear=0
shrinkage=0.01


Tree=121
num_leaves=5
num_cat=0
split_feature=0 3 2 2
split_gain=0.0249857 0.0209018 0.0188083 0.0136223
threshold=89550.000000000015 0.091477035860295763 0.17151148730620994 -0.10641543753864484
decision_type=2 2 2 2
left_child=1 2 3 -1
right_child=-2 -3 -4 -5
leaf_value=5.8617305454989772e-06 4.6354429984927415e-05 -2.3592861834452616e-05 1.107954910253094e-05 -4.9912371210364775e-06
leaf_weight=14258 1138 3847 13338 44819
leaf_count=14258 1138 3847 13338 44819
internal_value=0 -8.27592e-07 1.05769e-07 -2.03335e-06
internal_weight=77400 76262 72415 59077
internal_count=77400 76262 72415 59077
is_linear=0
shrinkage=0.01


Tree=122
num_leaves=5
num_cat=0
split_feature=0 3 2 6
split_gain=0.0235816 0.0176079 0.017609 0.0137006
threshold=53332.500000000007 0.070770674969121414 0.17151148730620994 0.0059920656903006504
decision_type=2 2 2 2
left_child=1 2 3 -1
right_child=-2 -3 -4 -5
leaf_value=-6.9959600886338217e-06 2.4105006903945908e-05 -1.7418704368525445e-05 1.1095304543056636e-05 2.6529906365514957e-06
leaf_weight=29769 3850 6201 12147 25362
leaf_count=29769 3850 6201 12147 25362
internal_value=0 -1.28228e-06 0 -2.19439e-06
internal_weight=77329 73479 67278 55131
internal_count=77329 73479 67278 55131
is_linear=0
shrinkage=0.01


Tree=123
num_leaves=5
num_cat=0
split_feature=1 5 1 0
split_gain=0.0292467 0.0230416 0.018191 0.0183314
threshold=-0.16976384333993325 0.18670293821291939 0.063775192503451358 17170.000000000004
decision_type=2 2 2 2
left_child=-1 2 3 -2
right_child=1 -3 -4 -5
leaf_value=9.6499813154514208e-05 -4.0442132083935974e-06 2.4454864303820839e-05 -1.5738134633256628e-05 6.7147557858358162e-06
leaf_weight=314 38547 3618 7909 26677
leaf_count=314 38547 3618 7909 26677
internal_value=2.28337e-07 0 -1.38435e-06 4.96529e-08
internal_weight=77065 76751 73133 65224
internal_count=77065 76751 73133 65224
is_linear=0
shrinkage=0.01


Tree=124
num_leaves=5
num_cat=0
split_feature=5 0 6 6
split_gain=0.0201149 0.0155847 0.0154869 0.00872978
threshold=-0.017577561062708798 22009.500000000004 0.048710850600986212 -0.050891884420203343
decision_type=2 2 2 2
left_child=2 -2 -1 -3
right_child=1 3 -4 -5
leaf_value=-9.5734744092175118e-06 0 0 5.8902924215674372e-06 1.7637526159613363e-05
leaf_weight=25742 30385 3131 6956 10900
leaf_count=25742 30385 3131 6956 10900
internal_value=1.25968e-08 4.64784e-06 -5.67211e-06 1.3396e-05
internal_weight=77114 44416 32698 14031
internal_count=77114 44416 32698 14031
is_linear=0
shrinkage=0.01


Tree=125
num_leaves=5
num_cat=0
split_feature=1 1 1 0
split_gain=0.0316863 0.0192444 0.0160397 0.0153087
threshold=-0.16976384333993325 0.14621883511108238 0.20900999765225398 29202.500000000004
decision_type=2 2 2 2
left_child=-1 3 -3 -2
right_child=1 2 -4 -5
leaf_value=0.00010213200319757897 -2.1201032032992026e-06 -7.5772048914145594e-05 0 9.6371835119771692e-06
leaf_weight=300 62268 620 608 13469
leaf_count=300 62268 620 608 13469
internal_value=-7.3647e-09 -6.66009e-07 -3.99285e-05 0
internal_weight=77265 76965 1228 75737
internal_count=77265 76965 1228 75737
is_linear=0
shrinkage=0.01


Tree=126
num_leaves=5
num_cat=0
split_feature=1 5 3 6
split_gain=0.0199336 0.0223994 0.0172642 0.0174917
threshold=-0.16976384333993325 0.18670293821291939 0.057332334159096957 0.011471996032326503
decision_type=2 2 2 2
left_child=-1 2 3 -2
right_child=1 -3 -4 -5
leaf_value=8.0128172276134428e-05 -4.1976815003314777e-06 2.4085337191856421e-05 -1.4206306257222923e-05 6.3236564840082207e-06
leaf_weight=310 35991 3590 9330 27893
leaf_count=310 35991 3590 9330 27893
internal_value=5.33534e-08 -9.96659e-09 -1.46479e-06 8.30884e-08
internal_weight=77114 76804 73214 63884
internal_count=77114 76804 73214 63884
is_linear=0
shrinkage=0.01


Tree=127
num_leaves=5
num_cat=0
split_feature=1 5 1 6
split_gain=0.0217817 0.0188224 0.0172347 0.0175299
threshold=-0.16976384333993325 0.15739699988145958 0.057305305513331455 0.036992714021712059
decision_type=2 2 2 2
left_child=-1 2 3 -2
right_child=1 -3 -4 -5
leaf_value=8.4300512356036398e-05 -3.2877503536395809e-06 1.7712619736789125e-05 -1.4429252650833081e-05 8.1997286028015632e-06
leaf_weight=306 43204 5377 9215 19126
leaf_count=306 43204 5377 9215 19126
internal_value=3.75696e-08 -3.81769e-08 -1.6519e-06 0
internal_weight=77228 76922 71545 62330
internal_count=77228 76922 71545 62330
is_linear=0
shrinkage=0.01


Tree=128
num_leaves=5
num_cat=0
split_feature=0 1 2 6
split_gain=0.0221524 0.0152223 0.012607 0.0119399
threshold=34002.500000000007 0.063775192503451358 0.23917651395112663 0.036992714021712059
decision_type=2 2 2 2
left_child=1 2 3 -1
right_child=-2 -3 -4 -5
leaf_value=-5.9756673398187755e-06 1.3584142172458165e-05 -1.5807693973826538e-05 9.7238711934834663e-06 4.200136589569037e-06
leaf_weight=33963 10595 7132 10291 15237
leaf_count=33963 10595 7132 10291 15237
internal_value=0 -1.97573e-06 0 -2.41776e-06
internal_weight=77218 66623 59491 49200
internal_count=77218 66623 59491 49200
is_linear=0
shrinkage=0.01


Tree=129
num_leaves=5
num_cat=0
split_feature=0 3 2 0
split_gain=0.0233961 0.0224491 0.0183149 0.0127341
threshold=89550.000000000015 0.091477035860295763 0.17151148730620994 17001.000000000004
decision_type=2 2 2 2
left_child=1 2 3 -1
right_child=-2 -3 -4 -5
leaf_value=-6.1105075316743548e-06 4.3944645054989049e-05 -2.4429431510436262e-05 1.0822804077137337e-05 3.0016404596083828e-06
leaf_weight=35334 1174 3881 13408 23863
leaf_count=35334 1174 3881 13408 23863
internal_value=-3.05737e-08 -9.67326e-07 1.15072e-08 -2.09945e-06
internal_weight=77660 76486 72605 59197
internal_count=77660 76486 72605 59197
is_linear=0
shrinkage=0.01


Tree=130
num_leaves=5
num_cat=0
split_feature=0 1 5 5
split_gain=0.0226972 0.0169789 0.0142321 0.0110889
threshold=45952.500000000007 0.14621883511108238 -1.0000000180025095e-35 -0.15673405013392858
decision_type=2 2 2 2
left_child=1 2 -1 -2
right_child=3 -3 -4 -5
leaf_value=-5.2124124714069844e-06 0 -4.1271859923194424e-05 3.7085897400909002e-06 2.5021241412082416e-05
leaf_weight=34437 550 1056 36122 5219
leaf_count=34437 550 1056 36122 5219
internal_value=3.18057e-08 -1.24474e-06 -3.61949e-07 1.93438e-05
internal_weight=77384 71615 70559 5769
internal_count=77384 71615 70559 5769
is_linear=0
shrinkage=0.01


Tree=131
num_leaves=5
num_cat=0
split_feature=0 5 0 1
split_gain=0.0251915 0.0150989 0.012572 0.0131776
threshold=22801.000000000004 0.12283460187011451 89550.000000000015 0.054806112483612758
decision_type=2 2 2 2
left_child=-1 2 3 -2
right_child=1 -3 -4 -5
leaf_value=-3.3743106463017592e-06 6.1062454955137531e-06 3.2309522960769773e-05 3.8792419831603615e-05 -1.7814376018463398e-05
leaf_weight=55906 15035 2839 1092 2516
leaf_count=55906 15035 2839 1092 2516
internal_value=0 9.3613e-06 4.79316e-06 1.53722e-06
internal_weight=77388 21482 18643 17551
internal_count=77388 21482 18643 17551
is_linear=0
shrinkage=0.01


Tree=132
num_leaves=5
num_cat=0
split_feature=5 0 6 2
split_gain=0.0213619 0.0145087 0.0113055 0.0112818
threshold=-0.017577561062708798 17698.500000000004 0.045132904067434858 1.0000000180025095e-35
decision_type=2 2 2 2
left_child=2 -2 -1 -3
right_child=1 3 -4 -5
leaf_value=-8.8250339828382662e-06 0 2.2526786992046046e-05 3.717893960971901e-06 3.7311513653116307e-06
leaf_weight=25409 25218 7118 7415 11998
leaf_count=25409 25218 7118 7415 11998
internal_value=4.40836e-07 5.20326e-06 -5.38225e-06 1.17765e-05
internal_weight=77158 44334 32824 19116
internal_count=77158 44334 32824 19116
is_linear=0
shrinkage=0.01


Tree=133
num_leaves=5
num_cat=0
split_feature=0 5 3 6
split_gain=0.0214667 0.0197035 0.0161868 0.0154821
threshold=89550.000000000015 0.018200870740175502 0.021705914605738053 -0.0015904430737343498
decision_type=2 2 2 2
left_child=1 2 3 -1
right_child=-2 -3 -4 -5
leaf_value=-7.6998503365809223e-06 4.3216709557677745e-05 4.8607513340473017e-06 -1.4426323931798622e-05 6.6929087124709683e-06
leaf_weight=16002 1133 33193 13592 13506
leaf_count=16002 1133 33193 13592 13506
internal_value=0 -6.23428e-07 -5.31105e-06 -4.3442e-07
internal_weight=77426 76293 43100 29508
internal_count=77426 76293 43100 29508
is_linear=0
shrinkage=0.01


Tree=134
num_leaves=5
num_cat=0
split_feature=1 5 1 1
split_gain=0.0228731 0.0221804 0.017906 0.01722
threshold=-0.16976384333993325 0.15739699988145958 0.14621883511108238 0.20900999765225398
decision_type=2 2 2 2
left_child=-1 2 -2 -4
right_child=1 -3 3 -5
leaf_value=8.4238591145493032e-05 -7.7304746624947362e-07 1.9277318935972591e-05 -8.1447319261059926e-05 0
leaf_weight=322 70313 5409 554 599
leaf_count=322 70313 5409 554 599
internal_value=1.24195e-07 0 -1.70514e-06 -4.11828e-05
internal_weight=77197 76875 71466 1153
internal_count=77197 76875 71466 1153
is_linear=0
shrinkage=0.01


Tree=135
num_leaves=5
num_cat=0
split_feature=1 5 3 6
split_gain=0.0307142 0.0195124 0.0171396 0.0155731
threshold=-0.16976384333993325 0.17525534462314793 0.057332334159096957 0.036992714021712059
decision_type=2 2 2 2
left_child=-1 2 3 -2
right_child=1 -3 -4 -5
leaf_value=9.9575403421027928e-05 -3.0818204985308202e-06 2.053374695008871e-05 -1.4370229416365948e-05 7.6203295621790357e-06
leaf_weight=309 44190 4167 9252 19590
leaf_count=309 44190 4167 9252 19590
internal_value=0 -1.8507e-07 -1.64121e-06 0
internal_weight=77508 77199 73032 63780
internal_count=77508 77199 73032 63780
is_linear=0
shrinkage=0.01


Tree=136
num_leaves=5
num_cat=0
split_feature=5 3 6 0
split_gain=0.0219427 0.0190511 0.0146087 0.0125958
threshold=0.030898619316510303 0.037405311504183358 -1.0000000180025095e-35 17970.500000000004
decision_type=2 2 2 2
left_child=1 2 -1 -2
right_child=3 -3 -4 -5
leaf_value=-6.1658557218605604e-06 1.4079752599203727e-07 -1.5769363630803119e-05 6.3683833025963142e-06 1.4653257567859648e-05
leaf_weight=20406 16806 10507 16891 12789
leaf_count=20406 16806 10507 16891 12789
internal_value=7.52663e-08 -3.84793e-06 0 7.08804e-06
internal_weight=77399 47804 37297 29595
internal_count=77399 47804 37297 29595
is_linear=0
shrinkage=0.01


Tree=137
num_leaves=5
num_cat=0
split_feature=1 1 1 5
split_gain=0.0201387 0.0179239 0.0165653 0.0162198
threshold=-0.16976384333993325 0.14621883511108238 0.20900999765225398 0.19259297452308907
decision_type=2 2 2 2
left_child=-1 3 -3 -2
right_child=1 2 -4 -5
leaf_value=7.9645154578537471e-05 -7.6422127181149568e-07 -7.4330897772211229e-05 0 2.1952578517592849e-05
leaf_weight=315 72778 626 622 3277
leaf_count=315 72778 626 622 3277
internal_value=0 -4.02827e-07 -3.80221e-05 0
internal_weight=77618 77303 1248 76055
internal_count=77618 77303 1248 76055
is_linear=0
shrinkage=0.01


Tree=138
num_leaves=5
num_cat=0
split_feature=0 5 2 2
split_gain=0.0199 0.0124194 0.0120989 0.0148315
threshold=18501.000000000004 -0.024712138977355195 1.0000000180025095e-35 0.17151148730620994
decision_type=2 2 2 2
left_child=-1 -2 -3 -4
right_child=1 2 3 -5
leaf_value=-3.9667389895082523e-06 -6.0573505890891812e-07 2.2451165541483108e-05 -2.9212492524869677e-06 1.9335644997756079e-05
leaf_weight=48179 10300 7070 7661 4102
leaf_count=48179 10300 7070 7661 4102
internal_value=0 6.50265e-06 1.14522e-05 3.14051e-06
internal_weight=77312 29133 18833 11763
internal_count=77312 29133 18833 11763
is_linear=0
shrinkage=0.01


Tree=139
num_leaves=5
num_cat=0
split_feature=1 0 1 6
split_gain=0.0249475 0.0164624 0.0150869 0.0145349
threshold=-0.16976384333993325 53332.500000000007 0.091379201842950467 0.049652726346244104
decision_type=2 2 2 2
left_child=-1 2 3 -2
right_child=1 -3 -4 -5
leaf_value=9.1134135075961049e-05 -2.9467144383817177e-06 1.9998721835079455e-05 -2.1076363536931752e-05 7.4658946526291139e-06
leaf_weight=300 51572 3810 3671 18042
leaf_count=300 51572 3810 3671 18042
internal_value=1.1555e-07 0 -1.2915e-06 0
internal_weight=77395 77095 73285 69614
internal_count=77395 77095 73285 69614
is_linear=0
shrinkage=0.01


Tree=140
num_leaves=5
num_cat=0
split_feature=5 1 1 1
split_gain=0.0180745 0.0170862 0.0156874 0.0130724
threshold=0.15739699988145958 0.14621883511108238 0.20900999765225398 -0.12583607036907446
decision_type=2 2 2 2
left_child=1 3 -3 -1
right_child=-2 2 -4 -5
leaf_value=5.1804511101359613e-05 1.7952095987336942e-05 -7.6065952131013217e-05 0 -7.5684117553095833e-07
leaf_weight=472 5370 579 584 70287
leaf_count=472 5370 579 584 70287
internal_value=2.75551e-08 -1.03281e-06 -3.91604e-05 -1.23218e-07
internal_weight=77292 71922 1163 70759
internal_count=77292 71922 1163 70759
is_linear=0
shrinkage=0.01


Tree=141
num_leaves=5
num_cat=0
split_feature=1 5 3 6
split_gain=0.0254051 0.018288 0.0148798 0.0107873
threshold=-0.16976384333993325 0.015137622712729301 0.037405311504183358 0.0067897849274754507
decision_type=2 2 2 2
left_child=-1 2 3 -2
right_child=1 -3 -4 -5
leaf_value=9.0851283711235496e-05 -6.5698345411340845e-06 4.4633860588808968e-06 -1.6329631833368847e-05 4.7095247336796561e-06
leaf_weight=303 19525 34166 9788 13419
leaf_count=303 19525 34166 9788 13419
internal_value=-6.28329e-08 -6.81732e-07 -5.2635e-06 -1.36836e-06
internal_weight=77201 76898 42732 32944
internal_count=77201 76898 42732 32944
is_linear=0
shrinkage=0.01


Tree=142
num_leaves=5
num_cat=0
split_feature=0 3 5 5
split_gain=0.0197536 0.0155097 0.0134092 0.0106929
threshold=46602.500000000007 0.091477035860295763 -0.0041790303573650987 -0.15673405013392858
decision_type=2 2 2 2
left_child=1 2 -1 -2
right_child=3 -3 -4 -5
leaf_value=-5.5576566149375601e-06 -1.5701285131726264e-06 -2.2426984377960335e-05 3.2322891057615264e-06 2.3561829022530576e-05
leaf_weight=31858 510 3579 36354 5003
leaf_count=31858 510 3579 36354 5003
internal_value=-2.94131e-07 -1.94769e-06 -5.79811e-07 1.76095e-05
internal_weight=77304 71791 68212 5513
internal_count=77304 71791 68212 5513
is_linear=0
shrinkage=0.01


Tree=143
num_leaves=5
num_cat=0
split_feature=0 3 5 0
split_gain=0.0185701 0.0138054 0.00877633 0.0107118
threshold=34002.500000000007 0.091477035860295763 -0.15673405013392858 89550.000000000015
decision_type=2 2 2 2
left_child=1 -1 -2 -4
right_child=2 -3 3 -5
leaf_value=-7.4764563510397244e-07 -4.9561139154933548e-06 -2.2272221256015079e-05 9.3178581786808865e-06 5.2718813275733663e-05
leaf_weight=63337 930 3314 8900 975
leaf_count=63337 930 3314 8900 975
internal_value=0 -2.11811e-06 1.20077e-05 1.56307e-05
internal_weight=77456 66651 10805 9875
internal_count=77456 66651 10805 9875
is_linear=0
shrinkage=0.01


Tree=144
num_leaves=5
num_cat=0
split_feature=0 5 6 0
split_gain=0.0240158 0.0169983 0.0108833 0.00986468
threshold=89550.000000000015 -1.0000000180025095e-35 0.047806644798646505 18701.000000000004
decision_type=2 2 2 2
left_child=1 2 -1 -3
right_child=-2 3 -4 -5
leaf_value=-8.0943344590333472e-06 4.6293068952637551e-05 0 3.6217950027938978e-06 1.0717978757343838e-05
leaf_weight=29075 1130 23575 8205 15338
leaf_count=29075 1130 23575 8205 15338
internal_value=5.22835e-07 0 -4.97923e-06 4.46429e-06
internal_weight=77323 76193 37280 38913
internal_count=77323 76193 37280 38913
is_linear=0
shrinkage=0.01


Tree=145
num_leaves=5
num_cat=0
split_feature=0 5 3 5
split_gain=0.020989 0.0143802 0.0165956 0.0137905
threshold=53332.500000000007 0.0097294730822726026 0.021705914605738053 -0.15673405013392858
decision_type=2 2 2 2
left_child=1 2 -1 -2
right_child=3 -3 -4 -5
leaf_value=-2.3952389755073459e-07 -3.2231105979671195e-07 3.2330485310345443e-06 -1.512555246184688e-05 3.1235592358036647e-05
leaf_weight=26670 411 34833 12321 3475
leaf_count=26670 411 34833 12321 3475
internal_value=0 -1.08554e-06 -5.45652e-06 2.27523e-05
internal_weight=77710 73824 38991 3886
internal_count=77710 73824 38991 3886
is_linear=0
shrinkage=0.01


Tree=146
num_leaves=5
num_cat=0
split_feature=5 4 3 6
split_gain=0.0187046 0.0100312 0.00892322 0.00648988
threshold=-0.019693992971061895 0.026265241473957906 0.021705914605738053 -0.015056181953293498
decision_type=2 2 2 2
left_child=2 -2 3 -1
right_child=1 -3 -4 -5
leaf_value=-6.9799891532596055e-06 9.3714989982273487e-06 0 -1.3104643820025255e-05 3.6776919840731799e-06
leaf_weight=10585 21678 23563 10784 10619
leaf_count=10585 21678 23563 10784 10619
internal_value=7.40136e-08 4.46215e-06 -5.50693e-06 -6.99447e-07
internal_weight=77229 45241 31988 21204
internal_count=77229 45241 31988 21204
is_linear=0
shrinkage=0.01


Tree=147
num_leaves=5
num_cat=0
split_feature=0 3 2 2
split_gain=0.0177557 0.016431 0.0183956 0.0124786
threshold=89550.000000000015 0.091477035860295763 0.17151148730620994 -0.10641543753864484
decision_type=2 2 2 2
left_child=1 2 3 -1
right_child=-2 -3 -4 -5
leaf_value=5.6165777724909504e-06 3.9462533516225558e-05 -2.0931195408709345e-05 1.0990718510342632e-05 -4.7548556021084826e-06
leaf_weight=14275 1123 3802 13467 44823
leaf_count=14275 1123 3802 13467 44823
internal_value=0 -5.83012e-07 2.07643e-07 -1.91121e-06
internal_weight=77490 76367 72565 59098
internal_count=77490 76367 72565 59098
is_linear=0
shrinkage=0.01


Tree=148
num_leaves=5
num_cat=0
split_feature=5 6 5 2
split_gain=0.0164682 0.00929703 0.00869779 0.00834333
threshold=-0.019693992971061895 0.045132904067434858 0.19259297452308907 -0.0071634112126442986
decision_type=2 2 2 2
left_child=1 -1 3 -2
right_child=2 -3 -4 -5
leaf_value=-8.9217795529847472e-06 8.3185175422622562e-06 2.1591554120755308e-06 1.9843791860764517e-05 -7.3466394341135784e-07
leaf_weight=24973 13680 7172 3297 28198
leaf_count=24973 13680 7172 3297 28198
internal_value=-1.13832e-07 -5.8273e-06 3.50898e-06 1.74517e-06
internal_weight=77320 32145 45175 41878
internal_count=77320 32145 45175 41878
is_linear=0
shrinkage=0.01


Tree=149
num_leaves=5
num_cat=0
split_feature=0 3 2 6
split_gain=0.0192793 0.0172074 0.0123698 0.0107966
threshold=34002.500000000007 0.070770674969121414 0.23917651395112663 0.036992714021712059
decision_type=2 2 2 2
left_child=1 2 3 -1
right_child=-2 -3 -4 -5
leaf_value=-5.8916131287065024e-06 1.2469093259104231e-05 -1.8698421779243814e-05 9.2619509212231099e-06 3.6030482661829092e-06
leaf_weight=34475 10662 5691 10697 15655
leaf_count=34475 10662 5691 10697 15655
internal_value=0 -2.01525e-06 -1.25421e-07 -2.52758e-06
internal_weight=77180 66518 60827 50130
internal_count=77180 66518 60827 50130
is_linear=0
shrinkage=0.01


Tree=150
num_leaves=5
num_cat=0
split_feature=1 5 1 0
split_gain=0.0198388 0.0166997 0.017619 0.0124454
threshold=-0.16976384333993325 0.030898619316510303 0.021714620404226604 32802.500000000007
decision_type=2 2 2 2
left_child=-1 2 -2 -4
right_child=1 -3 3 -5
leaf_value=8.0513592692070722e-05 0 5.4310903548804873e-06 -1.7414433813439228e-05 1.2640652960033335e-06
leaf_weight=305 32740 29393 12560 2359
leaf_count=305 32740 29393 12560 2359
internal_value=0 -2.12979e-07 -4.11354e-06 -1.31205e-05
internal_weight=77357 77052 47659 14919
internal_count=77357 77052 47659 14919
is_linear=0
shrinkage=0.01


Tree=151
num_leaves=5
num_cat=0
split_feature=5 1 0 2
split_gain=0.0167809 0.0144688 0.0119804 0.0171147
threshold=0.19259297452308907 0.063775192503451358 17170.000000000004 -0.0055201823975698991
decision_type=2 2 2 2
left_child=1 2 -1 -4
right_child=-2 -3 3 -5
leaf_value=-3.0520978685138799e-06 2.2190765516640243e-05 -1.3877181700699521e-05 1.5906200276876036e-05 0
leaf_weight=38584 3245 7914 10089 16986
leaf_count=38584 3245 7914 10089 16986
internal_value=0 -1.04214e-06 2.00389e-07 5.57408e-06
internal_weight=76818 73573 65659 27075
internal_count=76818 73573 65659 27075
is_linear=0
shrinkage=0.01


Tree=152
num_leaves=5
num_cat=0
split_feature=0 0 3 3
split_gain=0.017886 0.00924542 0.00935378 0.00828852
threshold=22801.000000000004 89550.000000000015 -0.042792480965152847 0.028532143953579853
decision_type=2 2 2 2
left_child=3 2 -2 -1
right_child=1 -3 -4 -5
leaf_value=-8.2859008276126405e-08 1.7866712589121748e-05 3.9371908029599543e-05 1.9130822125459874e-07 -9.5708425474609089e-06
leaf_weight=42158 4689 1110 15588 13734
leaf_count=42158 4689 1110 15588 13734
internal_value=0 7.97151e-06 5.26535e-06 -2.77218e-06
internal_weight=77279 21387 20277 55892
internal_count=77279 21387 20277 55892
is_linear=0
shrinkage=0.01


Tree=153
